digraph Tree {
node [shape=box, fontname="helvetica"] ;
edge [fontname="helvetica"] ;
rankdir=LR ;
0 [label="Log GDP per capita <= 1.054\ngini = 0.874\nsamples = 931\nvalue = [72, 80, 106, 170, 138, 144, 112, 59, 36, 14]"] ;
1 [label="Social support <= -0.083\ngini = 0.847\nsamples = 760\nvalue = [5, 19, 75, 158, 138, 144, 112, 59, 36, 14]"] ;
0 -> 1 [labeldistance=2.5, labelangle=-45, headlabel="True"] ;
2 [label="Log GDP per capita <= -1.123\ngini = 0.807\nsamples = 359\nvalue = [1, 1, 3, 18, 51, 99, 94, 44, 34, 14]"] ;
1 -> 2 ;
3 [label="Freedom to make life choices <= -2.66\ngini = 0.795\nsamples = 133\nvalue = [0, 0, 0, 2, 5, 24, 39, 25, 28, 10]"] ;
2 -> 3 ;
4 [label="gini = 0.0\nsamples = 4\nvalue = [0, 0, 0, 0, 0, 0, 0, 0, 0, 4]"] ;
3 -> 4 ;
5 [label="Log GDP per capita <= -2.206\ngini = 0.785\nsamples = 129\nvalue = [0, 0, 0, 2, 5, 24, 39, 25, 28, 6]"] ;
3 -> 5 ;
6 [label="Freedom to make life choices <= -0.362\ngini = 0.375\nsamples = 4\nvalue = [0, 0, 0, 0, 3, 0, 0, 1, 0, 0]"] ;
5 -> 6 ;
7 [label="gini = 0.0\nsamples = 1\nvalue = [0, 0, 0, 0, 0, 0, 0, 1, 0, 0]"] ;
6 -> 7 ;
8 [label="gini = 0.0\nsamples = 3\nvalue = [0, 0, 0, 0, 3, 0, 0, 0, 0, 0]"] ;
6 -> 8 ;
9 [label="Healthy life expectancy at birth <= -1.423\ngini = 0.776\nsamples = 125\nvalue = [0, 0, 0, 2, 2, 24, 39, 24, 28, 6]"] ;
5 -> 9 ;
10 [label="Social support <= -0.476\ngini = 0.757\nsamples = 66\nvalue = [0, 0, 0, 1, 1, 19, 21, 9, 13, 2]"] ;
9 -> 10 ;
11 [label="gini = 0.746\nsamples = 59\nvalue = [0, 0, 0, 1, 1, 19, 18, 5, 13, 2]"] ;
10 -> 11 ;
12 [label="gini = 0.49\nsamples = 7\nvalue = [0, 0, 0, 0, 0, 0, 3, 4, 0, 0]"] ;
10 -> 12 ;
13 [label="Social support <= -0.992\ngini = 0.765\nsamples = 59\nvalue = [0, 0, 0, 1, 1, 5, 18, 15, 15, 4]"] ;
9 -> 13 ;
14 [label="gini = 0.742\nsamples = 32\nvalue = [0, 0, 0, 0, 0, 3, 5, 11, 10, 3]"] ;
13 -> 14 ;
15 [label="gini = 0.702\nsamples = 27\nvalue = [0, 0, 0, 1, 1, 2, 13, 4, 5, 1]"] ;
13 -> 15 ;
16 [label="Log GDP per capita <= 0.953\ngini = 0.776\nsamples = 226\nvalue = [1, 1, 3, 16, 46, 75, 55, 19, 6, 4]"] ;
2 -> 16 ;
17 [label="Social support <= -0.55\ngini = 0.768\nsamples = 221\nvalue = [1, 1, 3, 11, 46, 75, 55, 19, 6, 4]"] ;
16 -> 17 ;
18 [label="Healthy life expectancy at birth <= 0.011\ngini = 0.73\nsamples = 126\nvalue = [0, 0, 0, 2, 21, 43, 43, 11, 3, 3]"] ;
17 -> 18 ;
19 [label="Healthy life expectancy at birth <= -0.042\ngini = 0.757\nsamples = 75\nvalue = [0, 0, 0, 2, 17, 26, 18, 8, 3, 1]"] ;
18 -> 19 ;
20 [label="gini = 0.753\nsamples = 71\nvalue = [0, 0, 0, 2, 13, 26, 18, 8, 3, 1]"] ;
19 -> 20 ;
21 [label="gini = 0.0\nsamples = 4\nvalue = [0, 0, 0, 0, 4, 0, 0, 0, 0, 0]"] ;
19 -> 21 ;
22 [label="Social support <= -1.197\ngini = 0.637\nsamples = 51\nvalue = [0, 0, 0, 0, 4, 17, 25, 3, 0, 2]"] ;
18 -> 22 ;
23 [label="gini = 0.504\nsamples = 22\nvalue = [0, 0, 0, 0, 1, 3, 15, 1, 0, 2]"] ;
22 -> 23 ;
24 [label="gini = 0.633\nsamples = 29\nvalue = [0, 0, 0, 0, 3, 14, 10, 2, 0, 0]"] ;
22 -> 24 ;
25 [label="Healthy life expectancy at birth <= -1.534\ngini = 0.783\nsamples = 95\nvalue = [1, 1, 3, 9, 25, 32, 12, 8, 3, 1]"] ;
17 -> 25 ;
26 [label="Log GDP per capita <= 0.232\ngini = 0.667\nsamples = 12\nvalue = [0, 0, 0, 0, 0, 1, 1, 6, 3, 1]"] ;
25 -> 26 ;
27 [label="gini = 0.6\nsamples = 10\nvalue = [0, 0, 0, 0, 0, 1, 1, 6, 1, 1]"] ;
26 -> 27 ;
28 [label="gini = 0.0\nsamples = 2\nvalue = [0, 0, 0, 0, 0, 0, 0, 0, 2, 0]"] ;
26 -> 28 ;
29 [label="Healthy life expectancy at birth <= 0.588\ngini = 0.738\nsamples = 83\nvalue = [1, 1, 3, 9, 25, 31, 11, 2, 0, 0]"] ;
25 -> 29 ;
30 [label="gini = 0.732\nsamples = 64\nvalue = [1, 1, 3, 7, 13, 28, 9, 2, 0, 0]"] ;
29 -> 30 ;
31 [label="gini = 0.554\nsamples = 19\nvalue = [0, 0, 0, 2, 12, 3, 2, 0, 0, 0]"] ;
29 -> 31 ;
32 [label="gini = 0.0\nsamples = 5\nvalue = [0, 0, 0, 5, 0, 0, 0, 0, 0, 0]"] ;
16 -> 32 ;
33 [label="Healthy life expectancy at birth <= -0.431\ngini = 0.781\nsamples = 401\nvalue = [4, 18, 72, 140, 87, 45, 18, 15, 2, 0]"] ;
1 -> 33 ;
34 [label="Log GDP per capita <= -1.386\ngini = 0.746\nsamples = 40\nvalue = [0, 0, 0, 2, 4, 15, 6, 11, 2, 0]"] ;
33 -> 34 ;
35 [label="Log GDP per capita <= -1.658\ngini = 0.5\nsamples = 8\nvalue = [0, 0, 0, 0, 0, 0, 4, 4, 0, 0]"] ;
34 -> 35 ;
36 [label="gini = 0.0\nsamples = 3\nvalue = [0, 0, 0, 0, 0, 0, 3, 0, 0, 0]"] ;
35 -> 36 ;
37 [label="Healthy life expectancy at birth <= -1.84\ngini = 0.32\nsamples = 5\nvalue = [0, 0, 0, 0, 0, 0, 1, 4, 0, 0]"] ;
35 -> 37 ;
38 [label="gini = 0.0\nsamples = 1\nvalue = [0, 0, 0, 0, 0, 0, 1, 0, 0, 0]"] ;
37 -> 38 ;
39 [label="gini = 0.0\nsamples = 4\nvalue = [0, 0, 0, 0, 0, 0, 0, 4, 0, 0]"] ;
37 -> 39 ;
40 [label="Log GDP per capita <= 0.226\ngini = 0.705\nsamples = 32\nvalue = [0, 0, 0, 2, 4, 15, 2, 7, 2, 0]"] ;
34 -> 40 ;
41 [label="Social support <= 0.861\ngini = 0.68\nsamples = 29\nvalue = [0, 0, 0, 2, 4, 15, 2, 4, 2, 0]"] ;
40 -> 41 ;
42 [label="Log GDP per capita <= -1.132\ngini = 0.599\nsamples = 22\nvalue = [0, 0, 0, 0, 1, 13, 2, 4, 2, 0]"] ;
41 -> 42 ;
43 [label="gini = 0.5\nsamples = 2\nvalue = [0, 0, 0, 0, 1, 0, 0, 0, 1, 0]"] ;
42 -> 43 ;
44 [label="gini = 0.525\nsamples = 20\nvalue = [0, 0, 0, 0, 0, 13, 2, 4, 1, 0]"] ;
42 -> 44 ;
45 [label="Log GDP per capita <= -0.034\ngini = 0.653\nsamples = 7\nvalue = [0, 0, 0, 2, 3, 2, 0, 0, 0, 0]"] ;
41 -> 45 ;
46 [label="gini = 0.5\nsamples = 4\nvalue = [0, 0, 0, 2, 0, 2, 0, 0, 0, 0]"] ;
45 -> 46 ;
47 [label="gini = 0.0\nsamples = 3\nvalue = [0, 0, 0, 0, 3, 0, 0, 0, 0, 0]"] ;
45 -> 47 ;
48 [label="gini = 0.0\nsamples = 3\nvalue = [0, 0, 0, 0, 0, 0, 0, 3, 0, 0]"] ;
40 -> 48 ;
49 [label="Log GDP per capita <= 0.861\ngini = 0.75\nsamples = 361\nvalue = [4, 18, 72, 138, 83, 30, 12, 4, 0, 0]"] ;
33 -> 49 ;
50 [label="Freedom to make life choices <= -0.701\ngini = 0.751\nsamples = 309\nvalue = [1, 12, 54, 113, 83, 30, 12, 4, 0, 0]"] ;
49 -> 50 ;
51 [label="Social support <= 0.96\ngini = 0.744\nsamples = 59\nvalue = [0, 0, 3, 12, 24, 11, 5, 4, 0, 0]"] ;
50 -> 51 ;
52 [label="Healthy life expectancy at birth <= 0.472\ngini = 0.732\nsamples = 55\nvalue = [0, 0, 3, 8, 24, 11, 5, 4, 0, 0]"] ;
51 -> 52 ;
53 [label="gini = 0.795\nsamples = 35\nvalue = [0, 0, 3, 4, 11, 8, 5, 4, 0, 0]"] ;
52 -> 53 ;
54 [label="gini = 0.515\nsamples = 20\nvalue = [0, 0, 0, 4, 13, 3, 0, 0, 0, 0]"] ;
52 -> 54 ;
55 [label="gini = 0.0\nsamples = 4\nvalue = [0, 0, 0, 4, 0, 0, 0, 0, 0, 0]"] ;
51 -> 55 ;
56 [label="Healthy life expectancy at birth <= 0.89\ngini = 0.731\nsamples = 250\nvalue = [1, 12, 51, 101, 59, 19, 7, 0, 0, 0]"] ;
50 -> 56 ;
57 [label="Log GDP per capita <= 0.259\ngini = 0.713\nsamples = 235\nvalue = [0, 7, 47, 101, 55, 18, 7, 0, 0, 0]"] ;
56 -> 57 ;
58 [label="gini = 0.711\nsamples = 145\nvalue = [0, 0, 20, 60, 42, 16, 7, 0, 0, 0]"] ;
57 -> 58 ;
59 [label="gini = 0.675\nsamples = 90\nvalue = [0, 7, 27, 41, 13, 2, 0, 0, 0, 0]"] ;
57 -> 59 ;
60 [label="Healthy life expectancy at birth <= 1.03\ngini = 0.738\nsamples = 15\nvalue = [1, 5, 4, 0, 4, 1, 0, 0, 0, 0]"] ;
56 -> 60 ;
61 [label="gini = 0.568\nsamples = 9\nvalue = [1, 5, 3, 0, 0, 0, 0, 0, 0, 0]"] ;
60 -> 61 ;
62 [label="gini = 0.5\nsamples = 6\nvalue = [0, 0, 1, 0, 4, 1, 0, 0, 0, 0]"] ;
60 -> 62 ;
63 [label="Social support <= 1.084\ngini = 0.632\nsamples = 52\nvalue = [3, 6, 18, 25, 0, 0, 0, 0, 0, 0]"] ;
49 -> 63 ;
64 [label="Freedom to make life choices <= 0.066\ngini = 0.563\nsamples = 39\nvalue = [3, 4, 8, 24, 0, 0, 0, 0, 0, 0]"] ;
63 -> 64 ;
65 [label="Log GDP per capita <= 1.032\ngini = 0.676\nsamples = 21\nvalue = [2, 3, 7, 9, 0, 0, 0, 0, 0, 0]"] ;
64 -> 65 ;
66 [label="gini = 0.695\nsamples = 16\nvalue = [2, 3, 7, 4, 0, 0, 0, 0, 0, 0]"] ;
65 -> 66 ;
67 [label="gini = 0.0\nsamples = 5\nvalue = [0, 0, 0, 5, 0, 0, 0, 0, 0, 0]"] ;
65 -> 67 ;
68 [label="Freedom to make life choices <= 1.156\ngini = 0.296\nsamples = 18\nvalue = [1, 1, 1, 15, 0, 0, 0, 0, 0, 0]"] ;
64 -> 68 ;
69 [label="gini = 0.215\nsamples = 17\nvalue = [1, 1, 0, 15, 0, 0, 0, 0, 0, 0]"] ;
68 -> 69 ;
70 [label="gini = 0.0\nsamples = 1\nvalue = [0, 0, 1, 0, 0, 0, 0, 0, 0, 0]"] ;
68 -> 70 ;
71 [label="Log GDP per capita <= 0.998\ngini = 0.379\nsamples = 13\nvalue = [0, 2, 10, 1, 0, 0, 0, 0, 0, 0]"] ;
63 -> 71 ;
72 [label="Freedom to make life choices <= 0.389\ngini = 0.292\nsamples = 12\nvalue = [0, 1, 10, 1, 0, 0, 0, 0, 0, 0]"] ;
71 -> 72 ;
73 [label="gini = 0.0\nsamples = 5\nvalue = [0, 0, 5, 0, 0, 0, 0, 0, 0, 0]"] ;
72 -> 73 ;
74 [label="gini = 0.449\nsamples = 7\nvalue = [0, 1, 5, 1, 0, 0, 0, 0, 0, 0]"] ;
72 -> 74 ;
75 [label="gini = 0.0\nsamples = 1\nvalue = [0, 1, 0, 0, 0, 0, 0, 0, 0, 0]"] ;
71 -> 75 ;
76 [label="Freedom to make life choices <= 1.093\ngini = 0.681\nsamples = 171\nvalue = [67, 61, 31, 12, 0, 0, 0, 0, 0, 0]"] ;
0 -> 76 [labeldistance=2.5, labelangle=45, headlabel="False"] ;
77 [label="Healthy life expectancy at birth <= 1.25\ngini = 0.649\nsamples = 99\nvalue = [11, 50, 26, 12, 0, 0, 0, 0, 0, 0]"] ;
76 -> 77 ;
78 [label="Healthy life expectancy at birth <= 0.037\ngini = 0.547\nsamples = 79\nvalue = [8, 50, 15, 6, 0, 0, 0, 0, 0, 0]"] ;
77 -> 78 ;
79 [label="gini = 0.0\nsamples = 8\nvalue = [0, 0, 8, 0, 0, 0, 0, 0, 0, 0]"] ;
78 -> 79 ;
80 [label="Social support <= 0.635\ngini = 0.475\nsamples = 71\nvalue = [8, 50, 7, 6, 0, 0, 0, 0, 0, 0]"] ;
78 -> 80 ;
81 [label="Healthy life expectancy at birth <= 1.006\ngini = 0.66\nsamples = 18\nvalue = [0, 7, 5, 6, 0, 0, 0, 0, 0, 0]"] ;
80 -> 81 ;
82 [label="Healthy life expectancy at birth <= 0.327\ngini = 0.54\nsamples = 10\nvalue = [0, 3, 1, 6, 0, 0, 0, 0, 0, 0]"] ;
81 -> 82 ;
83 [label="gini = 0.0\nsamples = 2\nvalue = [0, 2, 0, 0, 0, 0, 0, 0, 0, 0]"] ;
82 -> 83 ;
84 [label="gini = 0.406\nsamples = 8\nvalue = [0, 1, 1, 6, 0, 0, 0, 0, 0, 0]"] ;
82 -> 84 ;
85 [label="Log GDP per capita <= 1.284\ngini = 0.5\nsamples = 8\nvalue = [0, 4, 4, 0, 0, 0, 0, 0, 0, 0]"] ;
81 -> 85 ;
86 [label="gini = 0.32\nsamples = 5\nvalue = [0, 4, 1, 0, 0, 0, 0, 0, 0, 0]"] ;
85 -> 86 ;
87 [label="gini = 0.0\nsamples = 3\nvalue = [0, 0, 3, 0, 0, 0, 0, 0, 0, 0]"] ;
85 -> 87 ;
88 [label="Healthy life expectancy at birth <= 1.113\ngini = 0.318\nsamples = 53\nvalue = [8, 43, 2, 0, 0, 0, 0, 0, 0, 0]"] ;
80 -> 88 ;
89 [label="Log GDP per capita <= 1.088\ngini = 0.148\nsamples = 38\nvalue = [2, 35, 1, 0, 0, 0, 0, 0, 0, 0]"] ;
88 -> 89 ;
90 [label="gini = 0.5\nsamples = 2\nvalue = [0, 1, 1, 0, 0, 0, 0, 0, 0, 0]"] ;
89 -> 90 ;
91 [label="gini = 0.105\nsamples = 36\nvalue = [2, 34, 0, 0, 0, 0, 0, 0, 0, 0]"] ;
89 -> 91 ;
92 [label="Log GDP per capita <= 1.237\ngini = 0.551\nsamples = 15\nvalue = [6, 8, 1, 0, 0, 0, 0, 0, 0, 0]"] ;
88 -> 92 ;
93 [label="gini = 0.32\nsamples = 5\nvalue = [0, 4, 1, 0, 0, 0, 0, 0, 0, 0]"] ;
92 -> 93 ;
94 [label="gini = 0.48\nsamples = 10\nvalue = [6, 4, 0, 0, 0, 0, 0, 0, 0, 0]"] ;
92 -> 94 ;
95 [label="Freedom to make life choices <= 0.978\ngini = 0.585\nsamples = 20\nvalue = [3, 0, 11, 6, 0, 0, 0, 0, 0, 0]"] ;
77 -> 95 ;
96 [label="Freedom to make life choices <= -0.699\ngini = 0.43\nsamples = 16\nvalue = [0, 0, 11, 5, 0, 0, 0, 0, 0, 0]"] ;
95 -> 96 ;
97 [label="gini = 0.0\nsamples = 3\nvalue = [0, 0, 0, 3, 0, 0, 0, 0, 0, 0]"] ;
96 -> 97 ;
98 [label="Healthy life expectancy at birth <= 1.538\ngini = 0.26\nsamples = 13\nvalue = [0, 0, 11, 2, 0, 0, 0, 0, 0, 0]"] ;
96 -> 98 ;
99 [label="gini = 0.0\nsamples = 11\nvalue = [0, 0, 11, 0, 0, 0, 0, 0, 0, 0]"] ;
98 -> 99 ;
100 [label="gini = 0.0\nsamples = 2\nvalue = [0, 0, 0, 2, 0, 0, 0, 0, 0, 0]"] ;
98 -> 100 ;
101 [label="Social support <= 0.976\ngini = 0.375\nsamples = 4\nvalue = [3, 0, 0, 1, 0, 0, 0, 0, 0, 0]"] ;
95 -> 101 ;
102 [label="gini = 0.0\nsamples = 1\nvalue = [0, 0, 0, 1, 0, 0, 0, 0, 0, 0]"] ;
101 -> 102 ;
103 [label="gini = 0.0\nsamples = 3\nvalue = [3, 0, 0, 0, 0, 0, 0, 0, 0, 0]"] ;
101 -> 103 ;
104 [label="Social support <= 0.584\ngini = 0.367\nsamples = 72\nvalue = [56, 11, 5, 0, 0, 0, 0, 0, 0, 0]"] ;
76 -> 104 ;
105 [label="Healthy life expectancy at birth <= 0.312\ngini = 0.5\nsamples = 6\nvalue = [0, 3, 3, 0, 0, 0, 0, 0, 0, 0]"] ;
104 -> 105 ;
106 [label="gini = 0.0\nsamples = 3\nvalue = [0, 0, 3, 0, 0, 0, 0, 0, 0, 0]"] ;
105 -> 106 ;
107 [label="gini = 0.0\nsamples = 3\nvalue = [0, 3, 0, 0, 0, 0, 0, 0, 0, 0]"] ;
105 -> 107 ;
108 [label="Healthy life expectancy at birth <= 1.431\ngini = 0.264\nsamples = 66\nvalue = [56, 8, 2, 0, 0, 0, 0, 0, 0, 0]"] ;
104 -> 108 ;
109 [label="Log GDP per capita <= 1.903\ngini = 0.219\nsamples = 64\nvalue = [56, 8, 0, 0, 0, 0, 0, 0, 0, 0]"] ;
108 -> 109 ;
110 [label="Freedom to make life choices <= 1.242\ngini = 0.198\nsamples = 63\nvalue = [56, 7, 0, 0, 0, 0, 0, 0, 0, 0]"] ;
109 -> 110 ;
111 [label="Healthy life expectancy at birth <= 1.143\ngini = 0.375\nsamples = 20\nvalue = [15, 5, 0, 0, 0, 0, 0, 0, 0, 0]"] ;
110 -> 111 ;
112 [label="gini = 0.494\nsamples = 9\nvalue = [5, 4, 0, 0, 0, 0, 0, 0, 0, 0]"] ;
111 -> 112 ;
113 [label="gini = 0.165\nsamples = 11\nvalue = [10, 1, 0, 0, 0, 0, 0, 0, 0, 0]"] ;
111 -> 113 ;
114 [label="Log GDP per capita <= 1.492\ngini = 0.089\nsamples = 43\nvalue = [41, 2, 0, 0, 0, 0, 0, 0, 0, 0]"] ;
110 -> 114 ;
115 [label="gini = 0.046\nsamples = 42\nvalue = [41, 1, 0, 0, 0, 0, 0, 0, 0, 0]"] ;
114 -> 115 ;
116 [label="gini = 0.0\nsamples = 1\nvalue = [0, 1, 0, 0, 0, 0, 0, 0, 0, 0]"] ;
114 -> 116 ;
117 [label="gini = 0.0\nsamples = 1\nvalue = [0, 1, 0, 0, 0, 0, 0, 0, 0, 0]"] ;
109 -> 117 ;
118 [label="gini = 0.0\nsamples = 2\nvalue = [0, 0, 2, 0, 0, 0, 0, 0, 0, 0]"] ;
108 -> 118 ;
}
