digraph Tree {
node [shape=box, fontname="helvetica"] ;
edge [fontname="helvetica"] ;
0 [label="X[1] <= 1.065\ngini = 0.877\nsamples = 931\nvalue = [74, 80, 106, 158, 129, 146, 121, 65, 41, 11]"] ;
1 [label="X[2] <= -0.372\ngini = 0.852\nsamples = 765\nvalue = [5, 21, 80, 146, 129, 146, 121, 65, 41, 11]"] ;
0 -> 1 [labeldistance=2.5, labelangle=45, headlabel="True"] ;
2 [label="X[1] <= -1.443\ngini = 0.791\nsamples = 282\nvalue = [0, 0, 0, 6, 21, 67, 82, 57, 40, 9]"] ;
1 -> 2 ;
3 [label="X[3] <= 0.355\ngini = 0.753\nsamples = 107\nvalue = [0, 0, 0, 0, 2, 12, 39, 25, 22, 7]"] ;
2 -> 3 ;
4 [label="X[0] <= -2.866\ngini = 0.729\nsamples = 93\nvalue = [0, 0, 0, 0, 0, 11, 37, 25, 14, 6]"] ;
3 -> 4 ;
5 [label="X[3] <= -1.057\ngini = 0.48\nsamples = 5\nvalue = [0, 0, 0, 0, 0, 0, 0, 0, 2, 3]"] ;
4 -> 5 ;
6 [label="X[3] <= -2.267\ngini = 0.444\nsamples = 3\nvalue = [0, 0, 0, 0, 0, 0, 0, 0, 2, 1]"] ;
5 -> 6 ;
7 [label="gini = 0.0\nsamples = 1\nvalue = [0, 0, 0, 0, 0, 0, 0, 0, 0, 1]"] ;
6 -> 7 ;
8 [label="gini = 0.0\nsamples = 2\nvalue = [0, 0, 0, 0, 0, 0, 0, 0, 2, 0]"] ;
6 -> 8 ;
9 [label="gini = 0.0\nsamples = 2\nvalue = [0, 0, 0, 0, 0, 0, 0, 0, 0, 2]"] ;
5 -> 9 ;
10 [label="X[0] <= -1.111\ngini = 0.707\nsamples = 88\nvalue = [0, 0, 0, 0, 0, 11, 37, 25, 12, 3]"] ;
4 -> 10 ;
11 [label="X[2] <= -1.421\ngini = 0.758\nsamples = 45\nvalue = [0, 0, 0, 0, 0, 9, 13, 14, 6, 3]"] ;
10 -> 11 ;
12 [label="X[3] <= -1.072\ngini = 0.764\nsamples = 30\nvalue = [0, 0, 0, 0, 0, 9, 9, 5, 4, 3]"] ;
11 -> 12 ;
13 [label="X[2] <= -1.982\ngini = 0.698\nsamples = 13\nvalue = [0, 0, 0, 0, 0, 1, 5, 4, 0, 3]"] ;
12 -> 13 ;
14 [label="gini = 0.0\nsamples = 3\nvalue = [0, 0, 0, 0, 0, 0, 3, 0, 0, 0]"] ;
13 -> 14 ;
15 [label="X[3] <= -1.524\ngini = 0.7\nsamples = 10\nvalue = [0, 0, 0, 0, 0, 1, 2, 4, 0, 3]"] ;
13 -> 15 ;
16 [label="gini = 0.48\nsamples = 5\nvalue = [0, 0, 0, 0, 0, 0, 0, 2, 0, 3]"] ;
15 -> 16 ;
17 [label="gini = 0.64\nsamples = 5\nvalue = [0, 0, 0, 0, 0, 1, 2, 2, 0, 0]"] ;
15 -> 17 ;
18 [label="X[2] <= -1.764\ngini = 0.664\nsamples = 17\nvalue = [0, 0, 0, 0, 0, 8, 4, 1, 4, 0]"] ;
12 -> 18 ;
19 [label="X[2] <= -1.866\ngini = 0.711\nsamples = 11\nvalue = [0, 0, 0, 0, 0, 3, 4, 1, 3, 0]"] ;
18 -> 19 ;
20 [label="gini = 0.612\nsamples = 7\nvalue = [0, 0, 0, 0, 0, 3, 3, 1, 0, 0]"] ;
19 -> 20 ;
21 [label="gini = 0.375\nsamples = 4\nvalue = [0, 0, 0, 0, 0, 0, 1, 0, 3, 0]"] ;
19 -> 21 ;
22 [label="X[0] <= -1.306\ngini = 0.278\nsamples = 6\nvalue = [0, 0, 0, 0, 0, 5, 0, 0, 1, 0]"] ;
18 -> 22 ;
23 [label="gini = 0.444\nsamples = 3\nvalue = [0, 0, 0, 0, 0, 2, 0, 0, 1, 0]"] ;
22 -> 23 ;
24 [label="gini = 0.0\nsamples = 3\nvalue = [0, 0, 0, 0, 0, 3, 0, 0, 0, 0]"] ;
22 -> 24 ;
25 [label="X[2] <= -0.991\ngini = 0.551\nsamples = 15\nvalue = [0, 0, 0, 0, 0, 0, 4, 9, 2, 0]"] ;
11 -> 25 ;
26 [label="X[0] <= -2.401\ngini = 0.473\nsamples = 13\nvalue = [0, 0, 0, 0, 0, 0, 2, 9, 2, 0]"] ;
25 -> 26 ;
27 [label="X[2] <= -1.411\ngini = 0.444\nsamples = 3\nvalue = [0, 0, 0, 0, 0, 0, 2, 1, 0, 0]"] ;
26 -> 27 ;
28 [label="gini = 0.0\nsamples = 1\nvalue = [0, 0, 0, 0, 0, 0, 0, 1, 0, 0]"] ;
27 -> 28 ;
29 [label="gini = 0.0\nsamples = 2\nvalue = [0, 0, 0, 0, 0, 0, 2, 0, 0, 0]"] ;
27 -> 29 ;
30 [label="X[0] <= -1.187\ngini = 0.32\nsamples = 10\nvalue = [0, 0, 0, 0, 0, 0, 0, 8, 2, 0]"] ;
26 -> 30 ;
31 [label="gini = 0.198\nsamples = 9\nvalue = [0, 0, 0, 0, 0, 0, 0, 8, 1, 0]"] ;
30 -> 31 ;
32 [label="gini = 0.0\nsamples = 1\nvalue = [0, 0, 0, 0, 0, 0, 0, 0, 1, 0]"] ;
30 -> 32 ;
33 [label="gini = 0.0\nsamples = 2\nvalue = [0, 0, 0, 0, 0, 0, 2, 0, 0, 0]"] ;
25 -> 33 ;
34 [label="X[0] <= -0.789\ngini = 0.601\nsamples = 43\nvalue = [0, 0, 0, 0, 0, 2, 24, 11, 6, 0]"] ;
10 -> 34 ;
35 [label="X[2] <= -2.24\ngini = 0.219\nsamples = 8\nvalue = [0, 0, 0, 0, 0, 0, 7, 0, 1, 0]"] ;
34 -> 35 ;
36 [label="gini = 0.0\nsamples = 1\nvalue = [0, 0, 0, 0, 0, 0, 0, 0, 1, 0]"] ;
35 -> 36 ;
37 [label="gini = 0.0\nsamples = 7\nvalue = [0, 0, 0, 0, 0, 0, 7, 0, 0, 0]"] ;
35 -> 37 ;
38 [label="X[3] <= -0.11\ngini = 0.642\nsamples = 35\nvalue = [0, 0, 0, 0, 0, 2, 17, 11, 5, 0]"] ;
34 -> 38 ;
39 [label="X[1] <= -1.472\ngini = 0.612\nsamples = 31\nvalue = [0, 0, 0, 0, 0, 2, 17, 8, 4, 0]"] ;
38 -> 39 ;
40 [label="X[0] <= 0.135\ngini = 0.663\nsamples = 26\nvalue = [0, 0, 0, 0, 0, 2, 12, 8, 4, 0]"] ;
39 -> 40 ;
41 [label="gini = 0.705\nsamples = 20\nvalue = [0, 0, 0, 0, 0, 2, 7, 7, 4, 0]"] ;
40 -> 41 ;
42 [label="gini = 0.278\nsamples = 6\nvalue = [0, 0, 0, 0, 0, 0, 5, 1, 0, 0]"] ;
40 -> 42 ;
43 [label="gini = 0.0\nsamples = 5\nvalue = [0, 0, 0, 0, 0, 0, 5, 0, 0, 0]"] ;
39 -> 43 ;
44 [label="X[2] <= -1.458\ngini = 0.375\nsamples = 4\nvalue = [0, 0, 0, 0, 0, 0, 0, 3, 1, 0]"] ;
38 -> 44 ;
45 [label="gini = 0.0\nsamples = 1\nvalue = [0, 0, 0, 0, 0, 0, 0, 0, 1, 0]"] ;
44 -> 45 ;
46 [label="gini = 0.0\nsamples = 3\nvalue = [0, 0, 0, 0, 0, 0, 0, 3, 0, 0]"] ;
44 -> 46 ;
47 [label="X[2] <= -1.721\ngini = 0.622\nsamples = 14\nvalue = [0, 0, 0, 0, 2, 1, 2, 0, 8, 1]"] ;
3 -> 47 ;
48 [label="X[2] <= -2.325\ngini = 0.625\nsamples = 4\nvalue = [0, 0, 0, 0, 2, 1, 1, 0, 0, 0]"] ;
47 -> 48 ;
49 [label="gini = 0.0\nsamples = 2\nvalue = [0, 0, 0, 0, 2, 0, 0, 0, 0, 0]"] ;
48 -> 49 ;
50 [label="X[2] <= -2.277\ngini = 0.5\nsamples = 2\nvalue = [0, 0, 0, 0, 0, 1, 1, 0, 0, 0]"] ;
48 -> 50 ;
51 [label="gini = 0.0\nsamples = 1\nvalue = [0, 0, 0, 0, 0, 0, 1, 0, 0, 0]"] ;
50 -> 51 ;
52 [label="gini = 0.0\nsamples = 1\nvalue = [0, 0, 0, 0, 0, 1, 0, 0, 0, 0]"] ;
50 -> 52 ;
53 [label="X[2] <= -0.624\ngini = 0.34\nsamples = 10\nvalue = [0, 0, 0, 0, 0, 0, 1, 0, 8, 1]"] ;
47 -> 53 ;
54 [label="X[3] <= 0.433\ngini = 0.198\nsamples = 9\nvalue = [0, 0, 0, 0, 0, 0, 1, 0, 8, 0]"] ;
53 -> 54 ;
55 [label="X[2] <= -0.985\ngini = 0.5\nsamples = 2\nvalue = [0, 0, 0, 0, 0, 0, 1, 0, 1, 0]"] ;
54 -> 55 ;
56 [label="gini = 0.0\nsamples = 1\nvalue = [0, 0, 0, 0, 0, 0, 0, 0, 1, 0]"] ;
55 -> 56 ;
57 [label="gini = 0.0\nsamples = 1\nvalue = [0, 0, 0, 0, 0, 0, 1, 0, 0, 0]"] ;
55 -> 57 ;
58 [label="gini = 0.0\nsamples = 7\nvalue = [0, 0, 0, 0, 0, 0, 0, 0, 7, 0]"] ;
54 -> 58 ;
59 [label="gini = 0.0\nsamples = 1\nvalue = [0, 0, 0, 0, 0, 0, 0, 0, 0, 1]"] ;
53 -> 59 ;
60 [label="X[1] <= -1.263\ngini = 0.784\nsamples = 175\nvalue = [0, 0, 0, 6, 19, 55, 43, 32, 18, 2]"] ;
2 -> 60 ;
61 [label="X[0] <= -1.236\ngini = 0.7\nsamples = 20\nvalue = [0, 0, 0, 1, 1, 7, 0, 2, 8, 1]"] ;
60 -> 61 ;
62 [label="X[3] <= 0.069\ngini = 0.278\nsamples = 6\nvalue = [0, 0, 0, 0, 0, 5, 0, 0, 1, 0]"] ;
61 -> 62 ;
63 [label="gini = 0.0\nsamples = 5\nvalue = [0, 0, 0, 0, 0, 5, 0, 0, 0, 0]"] ;
62 -> 63 ;
64 [label="gini = 0.0\nsamples = 1\nvalue = [0, 0, 0, 0, 0, 0, 0, 0, 1, 0]"] ;
62 -> 64 ;
65 [label="X[1] <= -1.406\ngini = 0.694\nsamples = 14\nvalue = [0, 0, 0, 1, 1, 2, 0, 2, 7, 1]"] ;
61 -> 65 ;
66 [label="X[0] <= -0.407\ngini = 0.444\nsamples = 3\nvalue = [0, 0, 0, 0, 1, 2, 0, 0, 0, 0]"] ;
65 -> 66 ;
67 [label="gini = 0.0\nsamples = 2\nvalue = [0, 0, 0, 0, 0, 2, 0, 0, 0, 0]"] ;
66 -> 67 ;
68 [label="gini = 0.0\nsamples = 1\nvalue = [0, 0, 0, 0, 1, 0, 0, 0, 0, 0]"] ;
66 -> 68 ;
69 [label="X[2] <= -0.808\ngini = 0.545\nsamples = 11\nvalue = [0, 0, 0, 1, 0, 0, 0, 2, 7, 1]"] ;
65 -> 69 ;
70 [label="X[0] <= 0.179\ngini = 0.346\nsamples = 9\nvalue = [0, 0, 0, 0, 0, 0, 0, 2, 7, 0]"] ;
69 -> 70 ;
71 [label="X[2] <= -2.658\ngini = 0.219\nsamples = 8\nvalue = [0, 0, 0, 0, 0, 0, 0, 1, 7, 0]"] ;
70 -> 71 ;
72 [label="gini = 0.0\nsamples = 1\nvalue = [0, 0, 0, 0, 0, 0, 0, 1, 0, 0]"] ;
71 -> 72 ;
73 [label="gini = 0.0\nsamples = 7\nvalue = [0, 0, 0, 0, 0, 0, 0, 0, 7, 0]"] ;
71 -> 73 ;
74 [label="gini = 0.0\nsamples = 1\nvalue = [0, 0, 0, 0, 0, 0, 0, 1, 0, 0]"] ;
70 -> 74 ;
75 [label="X[2] <= -0.771\ngini = 0.5\nsamples = 2\nvalue = [0, 0, 0, 1, 0, 0, 0, 0, 0, 1]"] ;
69 -> 75 ;
76 [label="gini = 0.0\nsamples = 1\nvalue = [0, 0, 0, 1, 0, 0, 0, 0, 0, 0]"] ;
75 -> 76 ;
77 [label="gini = 0.0\nsamples = 1\nvalue = [0, 0, 0, 0, 0, 0, 0, 0, 0, 1]"] ;
75 -> 77 ;
78 [label="X[2] <= -1.266\ngini = 0.771\nsamples = 155\nvalue = [0, 0, 0, 5, 18, 48, 43, 30, 10, 1]"] ;
60 -> 78 ;
79 [label="X[1] <= 0.151\ngini = 0.776\nsamples = 66\nvalue = [0, 0, 0, 2, 7, 22, 10, 16, 9, 0]"] ;
78 -> 79 ;
80 [label="X[3] <= -1.475\ngini = 0.765\nsamples = 59\nvalue = [0, 0, 0, 2, 7, 22, 10, 12, 6, 0]"] ;
79 -> 80 ;
81 [label="X[2] <= -1.499\ngini = 0.594\nsamples = 8\nvalue = [0, 0, 0, 0, 0, 1, 0, 4, 3, 0]"] ;
80 -> 81 ;
82 [label="gini = 0.0\nsamples = 3\nvalue = [0, 0, 0, 0, 0, 0, 0, 3, 0, 0]"] ;
81 -> 82 ;
83 [label="X[0] <= -1.541\ngini = 0.56\nsamples = 5\nvalue = [0, 0, 0, 0, 0, 1, 0, 1, 3, 0]"] ;
81 -> 83 ;
84 [label="gini = 0.0\nsamples = 3\nvalue = [0, 0, 0, 0, 0, 0, 0, 0, 3, 0]"] ;
83 -> 84 ;
85 [label="X[0] <= -1.185\ngini = 0.5\nsamples = 2\nvalue = [0, 0, 0, 0, 0, 1, 0, 1, 0, 0]"] ;
83 -> 85 ;
86 [label="gini = 0.0\nsamples = 1\nvalue = [0, 0, 0, 0, 0, 0, 0, 1, 0, 0]"] ;
85 -> 86 ;
87 [label="gini = 0.0\nsamples = 1\nvalue = [0, 0, 0, 0, 0, 1, 0, 0, 0, 0]"] ;
85 -> 87 ;
88 [label="X[0] <= -0.011\ngini = 0.744\nsamples = 51\nvalue = [0, 0, 0, 2, 7, 21, 10, 8, 3, 0]"] ;
80 -> 88 ;
89 [label="X[2] <= -1.52\ngini = 0.772\nsamples = 41\nvalue = [0, 0, 0, 1, 7, 14, 8, 8, 3, 0]"] ;
88 -> 89 ;
90 [label="X[0] <= -0.502\ngini = 0.714\nsamples = 25\nvalue = [0, 0, 0, 0, 1, 10, 7, 5, 2, 0]"] ;
89 -> 90 ;
91 [label="gini = 0.524\nsamples = 15\nvalue = [0, 0, 0, 0, 0, 9, 5, 1, 0, 0]"] ;
90 -> 91 ;
92 [label="gini = 0.74\nsamples = 10\nvalue = [0, 0, 0, 0, 1, 1, 2, 4, 2, 0]"] ;
90 -> 92 ;
93 [label="X[1] <= -1.022\ngini = 0.75\nsamples = 16\nvalue = [0, 0, 0, 1, 6, 4, 1, 3, 1, 0]"] ;
89 -> 93 ;
94 [label="gini = 0.735\nsamples = 7\nvalue = [0, 0, 0, 1, 0, 3, 1, 1, 1, 0]"] ;
93 -> 94 ;
95 [label="gini = 0.494\nsamples = 9\nvalue = [0, 0, 0, 0, 6, 1, 0, 2, 0, 0]"] ;
93 -> 95 ;
96 [label="X[2] <= -1.339\ngini = 0.46\nsamples = 10\nvalue = [0, 0, 0, 1, 0, 7, 2, 0, 0, 0]"] ;
88 -> 96 ;
97 [label="X[0] <= 0.872\ngini = 0.245\nsamples = 7\nvalue = [0, 0, 0, 1, 0, 6, 0, 0, 0, 0]"] ;
96 -> 97 ;
98 [label="gini = 0.0\nsamples = 6\nvalue = [0, 0, 0, 0, 0, 6, 0, 0, 0, 0]"] ;
97 -> 98 ;
99 [label="gini = 0.0\nsamples = 1\nvalue = [0, 0, 0, 1, 0, 0, 0, 0, 0, 0]"] ;
97 -> 99 ;
100 [label="X[3] <= -0.498\ngini = 0.444\nsamples = 3\nvalue = [0, 0, 0, 0, 0, 1, 2, 0, 0, 0]"] ;
96 -> 100 ;
101 [label="gini = 0.0\nsamples = 1\nvalue = [0, 0, 0, 0, 0, 1, 0, 0, 0, 0]"] ;
100 -> 101 ;
102 [label="gini = 0.0\nsamples = 2\nvalue = [0, 0, 0, 0, 0, 0, 2, 0, 0, 0]"] ;
100 -> 102 ;
103 [label="X[2] <= -1.6\ngini = 0.49\nsamples = 7\nvalue = [0, 0, 0, 0, 0, 0, 0, 4, 3, 0]"] ;
79 -> 103 ;
104 [label="X[3] <= 0.078\ngini = 0.32\nsamples = 5\nvalue = [0, 0, 0, 0, 0, 0, 0, 4, 1, 0]"] ;
103 -> 104 ;
105 [label="gini = 0.0\nsamples = 1\nvalue = [0, 0, 0, 0, 0, 0, 0, 0, 1, 0]"] ;
104 -> 105 ;
106 [label="gini = 0.0\nsamples = 4\nvalue = [0, 0, 0, 0, 0, 0, 0, 4, 0, 0]"] ;
104 -> 106 ;
107 [label="gini = 0.0\nsamples = 2\nvalue = [0, 0, 0, 0, 0, 0, 0, 0, 2, 0]"] ;
103 -> 107 ;
108 [label="X[1] <= -0.648\ngini = 0.736\nsamples = 89\nvalue = [0, 0, 0, 3, 11, 26, 33, 14, 1, 1]"] ;
78 -> 108 ;
109 [label="X[1] <= -0.862\ngini = 0.684\nsamples = 60\nvalue = [0, 0, 0, 1, 5, 15, 28, 10, 0, 1]"] ;
108 -> 109 ;
110 [label="X[0] <= -1.045\ngini = 0.691\nsamples = 36\nvalue = [0, 0, 0, 0, 3, 14, 13, 5, 0, 1]"] ;
109 -> 110 ;
111 [label="X[2] <= -0.865\ngini = 0.691\nsamples = 9\nvalue = [0, 0, 0, 0, 2, 4, 0, 2, 0, 1]"] ;
110 -> 111 ;
112 [label="X[0] <= -2.016\ngini = 0.32\nsamples = 5\nvalue = [0, 0, 0, 0, 1, 4, 0, 0, 0, 0]"] ;
111 -> 112 ;
113 [label="gini = 0.0\nsamples = 1\nvalue = [0, 0, 0, 0, 1, 0, 0, 0, 0, 0]"] ;
112 -> 113 ;
114 [label="gini = 0.0\nsamples = 4\nvalue = [0, 0, 0, 0, 0, 4, 0, 0, 0, 0]"] ;
112 -> 114 ;
115 [label="X[1] <= -0.953\ngini = 0.625\nsamples = 4\nvalue = [0, 0, 0, 0, 1, 0, 0, 2, 0, 1]"] ;
111 -> 115 ;
116 [label="gini = 0.444\nsamples = 3\nvalue = [0, 0, 0, 0, 1, 0, 0, 2, 0, 0]"] ;
115 -> 116 ;
117 [label="gini = 0.0\nsamples = 1\nvalue = [0, 0, 0, 0, 0, 0, 0, 0, 0, 1]"] ;
115 -> 117 ;
118 [label="X[0] <= -0.047\ngini = 0.617\nsamples = 27\nvalue = [0, 0, 0, 0, 1, 10, 13, 3, 0, 0]"] ;
110 -> 118 ;
119 [label="X[2] <= -0.663\ngini = 0.556\nsamples = 23\nvalue = [0, 0, 0, 0, 1, 8, 13, 1, 0, 0]"] ;
118 -> 119 ;
120 [label="gini = 0.32\nsamples = 10\nvalue = [0, 0, 0, 0, 0, 2, 8, 0, 0, 0]"] ;
119 -> 120 ;
121 [label="gini = 0.627\nsamples = 13\nvalue = [0, 0, 0, 0, 1, 6, 5, 1, 0, 0]"] ;
119 -> 121 ;
122 [label="X[3] <= 0.162\ngini = 0.5\nsamples = 4\nvalue = [0, 0, 0, 0, 0, 2, 0, 2, 0, 0]"] ;
118 -> 122 ;
123 [label="gini = 0.0\nsamples = 2\nvalue = [0, 0, 0, 0, 0, 0, 0, 2, 0, 0]"] ;
122 -> 123 ;
124 [label="gini = 0.0\nsamples = 2\nvalue = [0, 0, 0, 0, 0, 2, 0, 0, 0, 0]"] ;
122 -> 124 ;
125 [label="X[2] <= -1.033\ngini = 0.556\nsamples = 24\nvalue = [0, 0, 0, 1, 2, 1, 15, 5, 0, 0]"] ;
109 -> 125 ;
126 [label="X[1] <= -0.829\ngini = 0.765\nsamples = 9\nvalue = [0, 0, 0, 1, 2, 1, 3, 2, 0, 0]"] ;
125 -> 126 ;
127 [label="gini = 0.0\nsamples = 3\nvalue = [0, 0, 0, 0, 0, 0, 3, 0, 0, 0]"] ;
126 -> 127 ;
128 [label="X[1] <= -0.775\ngini = 0.722\nsamples = 6\nvalue = [0, 0, 0, 1, 2, 1, 0, 2, 0, 0]"] ;
126 -> 128 ;
129 [label="gini = 0.444\nsamples = 3\nvalue = [0, 0, 0, 1, 2, 0, 0, 0, 0, 0]"] ;
128 -> 129 ;
130 [label="gini = 0.444\nsamples = 3\nvalue = [0, 0, 0, 0, 0, 1, 0, 2, 0, 0]"] ;
128 -> 130 ;
131 [label="X[0] <= -0.084\ngini = 0.32\nsamples = 15\nvalue = [0, 0, 0, 0, 0, 0, 12, 3, 0, 0]"] ;
125 -> 131 ;
132 [label="X[1] <= -0.691\ngini = 0.153\nsamples = 12\nvalue = [0, 0, 0, 0, 0, 0, 11, 1, 0, 0]"] ;
131 -> 132 ;
133 [label="gini = 0.0\nsamples = 10\nvalue = [0, 0, 0, 0, 0, 0, 10, 0, 0, 0]"] ;
132 -> 133 ;
134 [label="gini = 0.5\nsamples = 2\nvalue = [0, 0, 0, 0, 0, 0, 1, 1, 0, 0]"] ;
132 -> 134 ;
135 [label="X[1] <= -0.797\ngini = 0.444\nsamples = 3\nvalue = [0, 0, 0, 0, 0, 0, 1, 2, 0, 0]"] ;
131 -> 135 ;
136 [label="gini = 0.0\nsamples = 1\nvalue = [0, 0, 0, 0, 0, 0, 0, 1, 0, 0]"] ;
135 -> 136 ;
137 [label="gini = 0.5\nsamples = 2\nvalue = [0, 0, 0, 0, 0, 0, 1, 1, 0, 0]"] ;
135 -> 137 ;
138 [label="X[0] <= -1.483\ngini = 0.759\nsamples = 29\nvalue = [0, 0, 0, 2, 6, 11, 5, 4, 1, 0]"] ;
108 -> 138 ;
139 [label="X[0] <= -1.881\ngini = 0.375\nsamples = 4\nvalue = [0, 0, 0, 0, 0, 0, 0, 3, 1, 0]"] ;
138 -> 139 ;
140 [label="gini = 0.0\nsamples = 1\nvalue = [0, 0, 0, 0, 0, 0, 0, 0, 1, 0]"] ;
139 -> 140 ;
141 [label="gini = 0.0\nsamples = 3\nvalue = [0, 0, 0, 0, 0, 0, 0, 3, 0, 0]"] ;
139 -> 141 ;
142 [label="X[2] <= -0.456\ngini = 0.701\nsamples = 25\nvalue = [0, 0, 0, 2, 6, 11, 5, 1, 0, 0]"] ;
138 -> 142 ;
143 [label="X[2] <= -1.056\ngini = 0.669\nsamples = 22\nvalue = [0, 0, 0, 2, 5, 11, 3, 1, 0, 0]"] ;
142 -> 143 ;
144 [label="X[0] <= -0.484\ngini = 0.625\nsamples = 4\nvalue = [0, 0, 0, 0, 0, 1, 2, 1, 0, 0]"] ;
143 -> 144 ;
145 [label="gini = 0.0\nsamples = 1\nvalue = [0, 0, 0, 0, 0, 0, 0, 1, 0, 0]"] ;
144 -> 145 ;
146 [label="gini = 0.444\nsamples = 3\nvalue = [0, 0, 0, 0, 0, 1, 2, 0, 0, 0]"] ;
144 -> 146 ;
147 [label="X[2] <= -0.525\ngini = 0.599\nsamples = 18\nvalue = [0, 0, 0, 2, 5, 10, 1, 0, 0, 0]"] ;
143 -> 147 ;
148 [label="gini = 0.649\nsamples = 15\nvalue = [0, 0, 0, 2, 5, 7, 1, 0, 0, 0]"] ;
147 -> 148 ;
149 [label="gini = 0.0\nsamples = 3\nvalue = [0, 0, 0, 0, 0, 3, 0, 0, 0, 0]"] ;
147 -> 149 ;
150 [label="X[0] <= -0.392\ngini = 0.444\nsamples = 3\nvalue = [0, 0, 0, 0, 1, 0, 2, 0, 0, 0]"] ;
142 -> 150 ;
151 [label="gini = 0.0\nsamples = 2\nvalue = [0, 0, 0, 0, 0, 0, 2, 0, 0, 0]"] ;
150 -> 151 ;
152 [label="gini = 0.0\nsamples = 1\nvalue = [0, 0, 0, 0, 1, 0, 0, 0, 0, 0]"] ;
150 -> 152 ;
153 [label="X[0] <= -0.083\ngini = 0.803\nsamples = 483\nvalue = [5, 21, 80, 140, 108, 79, 39, 8, 1, 2]"] ;
1 -> 153 ;
154 [label="X[0] <= -0.55\ngini = 0.765\nsamples = 131\nvalue = [1, 1, 3, 15, 31, 45, 28, 4, 1, 2]"] ;
153 -> 154 ;
155 [label="X[2] <= 0.015\ngini = 0.695\nsamples = 62\nvalue = [0, 0, 0, 2, 7, 23, 24, 3, 1, 2]"] ;
154 -> 155 ;
156 [label="X[2] <= -0.042\ngini = 0.679\nsamples = 18\nvalue = [0, 0, 0, 1, 4, 9, 2, 1, 1, 0]"] ;
155 -> 156 ;
157 [label="X[3] <= -1.143\ngini = 0.641\nsamples = 16\nvalue = [0, 0, 0, 1, 2, 9, 2, 1, 1, 0]"] ;
156 -> 157 ;
158 [label="X[0] <= -1.262\ngini = 0.667\nsamples = 3\nvalue = [0, 0, 0, 0, 0, 0, 1, 1, 1, 0]"] ;
157 -> 158 ;
159 [label="gini = 0.0\nsamples = 1\nvalue = [0, 0, 0, 0, 0, 0, 0, 1, 0, 0]"] ;
158 -> 159 ;
160 [label="X[1] <= -0.111\ngini = 0.5\nsamples = 2\nvalue = [0, 0, 0, 0, 0, 0, 1, 0, 1, 0]"] ;
158 -> 160 ;
161 [label="gini = 0.0\nsamples = 1\nvalue = [0, 0, 0, 0, 0, 0, 0, 0, 1, 0]"] ;
160 -> 161 ;
162 [label="gini = 0.0\nsamples = 1\nvalue = [0, 0, 0, 0, 0, 0, 1, 0, 0, 0]"] ;
160 -> 162 ;
163 [label="X[3] <= 0.232\ngini = 0.485\nsamples = 13\nvalue = [0, 0, 0, 1, 2, 9, 1, 0, 0, 0]"] ;
157 -> 163 ;
164 [label="X[2] <= -0.199\ngini = 0.403\nsamples = 12\nvalue = [0, 0, 0, 0, 2, 9, 1, 0, 0, 0]"] ;
163 -> 164 ;
165 [label="X[2] <= -0.283\ngini = 0.611\nsamples = 6\nvalue = [0, 0, 0, 0, 2, 3, 1, 0, 0, 0]"] ;
164 -> 165 ;
166 [label="gini = 0.375\nsamples = 4\nvalue = [0, 0, 0, 0, 0, 3, 1, 0, 0, 0]"] ;
165 -> 166 ;
167 [label="gini = 0.0\nsamples = 2\nvalue = [0, 0, 0, 0, 2, 0, 0, 0, 0, 0]"] ;
165 -> 167 ;
168 [label="gini = 0.0\nsamples = 6\nvalue = [0, 0, 0, 0, 0, 6, 0, 0, 0, 0]"] ;
164 -> 168 ;
169 [label="gini = 0.0\nsamples = 1\nvalue = [0, 0, 0, 1, 0, 0, 0, 0, 0, 0]"] ;
163 -> 169 ;
170 [label="gini = 0.0\nsamples = 2\nvalue = [0, 0, 0, 0, 2, 0, 0, 0, 0, 0]"] ;
156 -> 170 ;
171 [label="X[2] <= 0.496\ngini = 0.639\nsamples = 44\nvalue = [0, 0, 0, 1, 3, 14, 22, 2, 0, 2]"] ;
155 -> 171 ;
172 [label="X[1] <= 0.13\ngini = 0.536\nsamples = 30\nvalue = [0, 0, 0, 0, 0, 7, 19, 2, 0, 2]"] ;
171 -> 172 ;
173 [label="X[3] <= -1.689\ngini = 0.472\nsamples = 27\nvalue = [0, 0, 0, 0, 0, 4, 19, 2, 0, 2]"] ;
172 -> 173 ;
174 [label="X[2] <= 0.153\ngini = 0.5\nsamples = 4\nvalue = [0, 0, 0, 0, 0, 2, 0, 0, 0, 2]"] ;
173 -> 174 ;
175 [label="gini = 0.0\nsamples = 2\nvalue = [0, 0, 0, 0, 0, 0, 0, 0, 0, 2]"] ;
174 -> 175 ;
176 [label="gini = 0.0\nsamples = 2\nvalue = [0, 0, 0, 0, 0, 2, 0, 0, 0, 0]"] ;
174 -> 176 ;
177 [label="X[3] <= -0.176\ngini = 0.302\nsamples = 23\nvalue = [0, 0, 0, 0, 0, 2, 19, 2, 0, 0]"] ;
173 -> 177 ;
178 [label="X[3] <= -0.973\ngini = 0.449\nsamples = 14\nvalue = [0, 0, 0, 0, 0, 2, 10, 2, 0, 0]"] ;
177 -> 178 ;
179 [label="gini = 0.165\nsamples = 11\nvalue = [0, 0, 0, 0, 0, 1, 10, 0, 0, 0]"] ;
178 -> 179 ;
180 [label="gini = 0.444\nsamples = 3\nvalue = [0, 0, 0, 0, 0, 1, 0, 2, 0, 0]"] ;
178 -> 180 ;
181 [label="gini = 0.0\nsamples = 9\nvalue = [0, 0, 0, 0, 0, 0, 9, 0, 0, 0]"] ;
177 -> 181 ;
182 [label="gini = 0.0\nsamples = 3\nvalue = [0, 0, 0, 0, 0, 3, 0, 0, 0, 0]"] ;
172 -> 182 ;
183 [label="X[1] <= 0.545\ngini = 0.653\nsamples = 14\nvalue = [0, 0, 0, 1, 3, 7, 3, 0, 0, 0]"] ;
171 -> 183 ;
184 [label="X[1] <= 0.051\ngini = 0.569\nsamples = 12\nvalue = [0, 0, 0, 0, 3, 7, 2, 0, 0, 0]"] ;
183 -> 184 ;
185 [label="X[2] <= 0.738\ngini = 0.656\nsamples = 8\nvalue = [0, 0, 0, 0, 3, 3, 2, 0, 0, 0]"] ;
184 -> 185 ;
186 [label="X[0] <= -1.443\ngini = 0.375\nsamples = 4\nvalue = [0, 0, 0, 0, 3, 1, 0, 0, 0, 0]"] ;
185 -> 186 ;
187 [label="gini = 0.0\nsamples = 1\nvalue = [0, 0, 0, 0, 0, 1, 0, 0, 0, 0]"] ;
186 -> 187 ;
188 [label="gini = 0.0\nsamples = 3\nvalue = [0, 0, 0, 0, 3, 0, 0, 0, 0, 0]"] ;
186 -> 188 ;
189 [label="X[3] <= -0.148\ngini = 0.5\nsamples = 4\nvalue = [0, 0, 0, 0, 0, 2, 2, 0, 0, 0]"] ;
185 -> 189 ;
190 [label="gini = 0.0\nsamples = 2\nvalue = [0, 0, 0, 0, 0, 0, 2, 0, 0, 0]"] ;
189 -> 190 ;
191 [label="gini = 0.0\nsamples = 2\nvalue = [0, 0, 0, 0, 0, 2, 0, 0, 0, 0]"] ;
189 -> 191 ;
192 [label="gini = 0.0\nsamples = 4\nvalue = [0, 0, 0, 0, 0, 4, 0, 0, 0, 0]"] ;
184 -> 192 ;
193 [label="X[2] <= 0.964\ngini = 0.5\nsamples = 2\nvalue = [0, 0, 0, 1, 0, 0, 1, 0, 0, 0]"] ;
183 -> 193 ;
194 [label="gini = 0.0\nsamples = 1\nvalue = [0, 0, 0, 0, 0, 0, 1, 0, 0, 0]"] ;
193 -> 194 ;
195 [label="gini = 0.0\nsamples = 1\nvalue = [0, 0, 0, 1, 0, 0, 0, 0, 0, 0]"] ;
193 -> 195 ;
196 [label="X[1] <= 0.944\ngini = 0.736\nsamples = 69\nvalue = [1, 1, 3, 13, 24, 22, 4, 1, 0, 0]"] ;
154 -> 196 ;
197 [label="X[3] <= -1.182\ngini = 0.719\nsamples = 64\nvalue = [1, 1, 3, 8, 24, 22, 4, 1, 0, 0]"] ;
196 -> 197 ;
198 [label="X[3] <= -1.783\ngini = 0.485\nsamples = 13\nvalue = [0, 0, 0, 1, 2, 9, 1, 0, 0, 0]"] ;
197 -> 198 ;
199 [label="X[3] <= -2.42\ngini = 0.722\nsamples = 6\nvalue = [0, 0, 0, 1, 2, 2, 1, 0, 0, 0]"] ;
198 -> 199 ;
200 [label="gini = 0.0\nsamples = 2\nvalue = [0, 0, 0, 0, 0, 2, 0, 0, 0, 0]"] ;
199 -> 200 ;
201 [label="X[3] <= -2.148\ngini = 0.625\nsamples = 4\nvalue = [0, 0, 0, 1, 2, 0, 1, 0, 0, 0]"] ;
199 -> 201 ;
202 [label="gini = 0.0\nsamples = 1\nvalue = [0, 0, 0, 1, 0, 0, 0, 0, 0, 0]"] ;
201 -> 202 ;
203 [label="X[2] <= 0.067\ngini = 0.444\nsamples = 3\nvalue = [0, 0, 0, 0, 2, 0, 1, 0, 0, 0]"] ;
201 -> 203 ;
204 [label="gini = 0.0\nsamples = 1\nvalue = [0, 0, 0, 0, 0, 0, 1, 0, 0, 0]"] ;
203 -> 204 ;
205 [label="gini = 0.0\nsamples = 2\nvalue = [0, 0, 0, 0, 2, 0, 0, 0, 0, 0]"] ;
203 -> 205 ;
206 [label="gini = 0.0\nsamples = 7\nvalue = [0, 0, 0, 0, 0, 7, 0, 0, 0, 0]"] ;
198 -> 206 ;
207 [label="X[2] <= 0.307\ngini = 0.722\nsamples = 51\nvalue = [1, 1, 3, 7, 22, 13, 3, 1, 0, 0]"] ;
197 -> 207 ;
208 [label="X[3] <= 0.545\ngini = 0.738\nsamples = 27\nvalue = [0, 0, 2, 6, 7, 10, 1, 1, 0, 0]"] ;
207 -> 208 ;
209 [label="X[0] <= -0.18\ngini = 0.551\nsamples = 14\nvalue = [0, 0, 0, 1, 2, 9, 1, 1, 0, 0]"] ;
208 -> 209 ;
210 [label="X[0] <= -0.224\ngini = 0.75\nsamples = 8\nvalue = [0, 0, 0, 1, 2, 3, 1, 1, 0, 0]"] ;
209 -> 210 ;
211 [label="gini = 0.694\nsamples = 7\nvalue = [0, 0, 0, 0, 2, 3, 1, 1, 0, 0]"] ;
210 -> 211 ;
212 [label="gini = 0.0\nsamples = 1\nvalue = [0, 0, 0, 1, 0, 0, 0, 0, 0, 0]"] ;
210 -> 212 ;
213 [label="gini = 0.0\nsamples = 6\nvalue = [0, 0, 0, 0, 0, 6, 0, 0, 0, 0]"] ;
209 -> 213 ;
214 [label="X[3] <= 1.335\ngini = 0.675\nsamples = 13\nvalue = [0, 0, 2, 5, 5, 1, 0, 0, 0, 0]"] ;
208 -> 214 ;
215 [label="X[1] <= -0.49\ngini = 0.625\nsamples = 12\nvalue = [0, 0, 2, 5, 5, 0, 0, 0, 0, 0]"] ;
214 -> 215 ;
216 [label="gini = 0.0\nsamples = 2\nvalue = [0, 0, 0, 0, 2, 0, 0, 0, 0, 0]"] ;
215 -> 216 ;
217 [label="gini = 0.62\nsamples = 10\nvalue = [0, 0, 2, 5, 3, 0, 0, 0, 0, 0]"] ;
215 -> 217 ;
218 [label="gini = 0.0\nsamples = 1\nvalue = [0, 0, 0, 0, 0, 1, 0, 0, 0, 0]"] ;
214 -> 218 ;
219 [label="X[3] <= 0.897\ngini = 0.58\nsamples = 24\nvalue = [1, 1, 1, 1, 15, 3, 2, 0, 0, 0]"] ;
207 -> 219 ;
220 [label="X[2] <= 0.461\ngini = 0.552\nsamples = 23\nvalue = [1, 1, 1, 1, 15, 2, 2, 0, 0, 0]"] ;
219 -> 220 ;
221 [label="X[1] <= 0.378\ngini = 0.741\nsamples = 9\nvalue = [1, 1, 1, 1, 4, 1, 0, 0, 0, 0]"] ;
220 -> 221 ;
222 [label="gini = 0.0\nsamples = 4\nvalue = [0, 0, 0, 0, 4, 0, 0, 0, 0, 0]"] ;
221 -> 222 ;
223 [label="gini = 0.8\nsamples = 5\nvalue = [1, 1, 1, 1, 0, 1, 0, 0, 0, 0]"] ;
221 -> 223 ;
224 [label="X[3] <= -0.562\ngini = 0.357\nsamples = 14\nvalue = [0, 0, 0, 0, 11, 1, 2, 0, 0, 0]"] ;
220 -> 224 ;
225 [label="gini = 0.444\nsamples = 3\nvalue = [0, 0, 0, 0, 1, 0, 2, 0, 0, 0]"] ;
224 -> 225 ;
226 [label="gini = 0.165\nsamples = 11\nvalue = [0, 0, 0, 0, 10, 1, 0, 0, 0, 0]"] ;
224 -> 226 ;
227 [label="gini = 0.0\nsamples = 1\nvalue = [0, 0, 0, 0, 0, 1, 0, 0, 0, 0]"] ;
219 -> 227 ;
228 [label="gini = 0.0\nsamples = 5\nvalue = [0, 0, 0, 5, 0, 0, 0, 0, 0, 0]"] ;
196 -> 228 ;
229 [label="X[1] <= 0.861\ngini = 0.764\nsamples = 352\nvalue = [4, 20, 77, 125, 77, 34, 11, 4, 0, 0]"] ;
153 -> 229 ;
230 [label="X[3] <= 0.006\ngini = 0.768\nsamples = 299\nvalue = [2, 14, 56, 101, 77, 34, 11, 4, 0, 0]"] ;
229 -> 230 ;
231 [label="X[0] <= 0.983\ngini = 0.75\nsamples = 117\nvalue = [0, 3, 9, 34, 42, 19, 6, 4, 0, 0]"] ;
230 -> 231 ;
232 [label="X[2] <= 0.741\ngini = 0.747\nsamples = 106\nvalue = [0, 3, 8, 25, 42, 18, 6, 4, 0, 0]"] ;
231 -> 232 ;
233 [label="X[2] <= -0.01\ngini = 0.734\nsamples = 98\nvalue = [0, 2, 7, 19, 42, 18, 6, 4, 0, 0]"] ;
232 -> 233 ;
234 [label="X[0] <= 0.896\ngini = 0.395\nsamples = 20\nvalue = [0, 0, 0, 4, 15, 0, 1, 0, 0, 0]"] ;
233 -> 234 ;
235 [label="X[0] <= 0.028\ngini = 0.349\nsamples = 19\nvalue = [0, 0, 0, 3, 15, 0, 1, 0, 0, 0]"] ;
234 -> 235 ;
236 [label="gini = 0.667\nsamples = 3\nvalue = [0, 0, 0, 1, 1, 0, 1, 0, 0, 0]"] ;
235 -> 236 ;
237 [label="gini = 0.219\nsamples = 16\nvalue = [0, 0, 0, 2, 14, 0, 0, 0, 0, 0]"] ;
235 -> 237 ;
238 [label="gini = 0.0\nsamples = 1\nvalue = [0, 0, 0, 1, 0, 0, 0, 0, 0, 0]"] ;
234 -> 238 ;
239 [label="X[2] <= 0.48\ngini = 0.774\nsamples = 78\nvalue = [0, 2, 7, 15, 27, 18, 5, 4, 0, 0]"] ;
233 -> 239 ;
240 [label="X[3] <= -0.646\ngini = 0.806\nsamples = 62\nvalue = [0, 2, 7, 13, 16, 15, 5, 4, 0, 0]"] ;
239 -> 240 ;
241 [label="gini = 0.77\nsamples = 34\nvalue = [0, 0, 3, 2, 11, 10, 4, 4, 0, 0]"] ;
240 -> 241 ;
242 [label="gini = 0.755\nsamples = 28\nvalue = [0, 2, 4, 11, 5, 5, 1, 0, 0, 0]"] ;
240 -> 242 ;
243 [label="X[3] <= -1.91\ngini = 0.477\nsamples = 16\nvalue = [0, 0, 0, 2, 11, 3, 0, 0, 0, 0]"] ;
239 -> 243 ;
244 [label="gini = 0.0\nsamples = 2\nvalue = [0, 0, 0, 0, 0, 2, 0, 0, 0, 0]"] ;
243 -> 244 ;
245 [label="gini = 0.357\nsamples = 14\nvalue = [0, 0, 0, 2, 11, 1, 0, 0, 0, 0]"] ;
243 -> 245 ;
246 [label="X[3] <= -0.074\ngini = 0.406\nsamples = 8\nvalue = [0, 1, 1, 6, 0, 0, 0, 0, 0, 0]"] ;
232 -> 246 ;
247 [label="X[0] <= 0.305\ngini = 0.245\nsamples = 7\nvalue = [0, 0, 1, 6, 0, 0, 0, 0, 0, 0]"] ;
246 -> 247 ;
248 [label="X[0] <= 0.179\ngini = 0.444\nsamples = 3\nvalue = [0, 0, 1, 2, 0, 0, 0, 0, 0, 0]"] ;
247 -> 248 ;
249 [label="gini = 0.0\nsamples = 2\nvalue = [0, 0, 0, 2, 0, 0, 0, 0, 0, 0]"] ;
248 -> 249 ;
250 [label="gini = 0.0\nsamples = 1\nvalue = [0, 0, 1, 0, 0, 0, 0, 0, 0, 0]"] ;
248 -> 250 ;
251 [label="gini = 0.0\nsamples = 4\nvalue = [0, 0, 0, 4, 0, 0, 0, 0, 0, 0]"] ;
247 -> 251 ;
252 [label="gini = 0.0\nsamples = 1\nvalue = [0, 1, 0, 0, 0, 0, 0, 0, 0, 0]"] ;
246 -> 252 ;
253 [label="X[0] <= 1.115\ngini = 0.314\nsamples = 11\nvalue = [0, 0, 1, 9, 0, 1, 0, 0, 0, 0]"] ;
231 -> 253 ;
254 [label="gini = 0.0\nsamples = 7\nvalue = [0, 0, 0, 7, 0, 0, 0, 0, 0, 0]"] ;
253 -> 254 ;
255 [label="X[0] <= 1.169\ngini = 0.625\nsamples = 4\nvalue = [0, 0, 1, 2, 0, 1, 0, 0, 0, 0]"] ;
253 -> 255 ;
256 [label="X[2] <= 0.38\ngini = 0.5\nsamples = 2\nvalue = [0, 0, 1, 0, 0, 1, 0, 0, 0, 0]"] ;
255 -> 256 ;
257 [label="gini = 0.0\nsamples = 1\nvalue = [0, 0, 0, 0, 0, 1, 0, 0, 0, 0]"] ;
256 -> 257 ;
258 [label="gini = 0.0\nsamples = 1\nvalue = [0, 0, 1, 0, 0, 0, 0, 0, 0, 0]"] ;
256 -> 258 ;
259 [label="gini = 0.0\nsamples = 2\nvalue = [0, 0, 0, 2, 0, 0, 0, 0, 0, 0]"] ;
255 -> 259 ;
260 [label="X[2] <= 0.825\ngini = 0.749\nsamples = 182\nvalue = [2, 11, 47, 67, 35, 15, 5, 0, 0, 0]"] ;
230 -> 260 ;
261 [label="X[2] <= 0.238\ngini = 0.716\nsamples = 158\nvalue = [0, 6, 40, 67, 28, 12, 5, 0, 0, 0]"] ;
260 -> 261 ;
262 [label="X[0] <= 0.825\ngini = 0.731\nsamples = 70\nvalue = [0, 0, 13, 25, 20, 11, 1, 0, 0, 0]"] ;
261 -> 262 ;
263 [label="X[2] <= -0.257\ngini = 0.739\nsamples = 55\nvalue = [0, 0, 11, 15, 18, 11, 0, 0, 0, 0]"] ;
262 -> 263 ;
264 [label="X[1] <= -1.035\ngini = 0.595\nsamples = 11\nvalue = [0, 0, 6, 3, 0, 2, 0, 0, 0, 0]"] ;
263 -> 264 ;
265 [label="gini = 0.0\nsamples = 2\nvalue = [0, 0, 0, 0, 0, 2, 0, 0, 0, 0]"] ;
264 -> 265 ;
266 [label="gini = 0.444\nsamples = 9\nvalue = [0, 0, 6, 3, 0, 0, 0, 0, 0, 0]"] ;
264 -> 266 ;
267 [label="X[1] <= -0.576\ngini = 0.704\nsamples = 44\nvalue = [0, 0, 5, 12, 18, 9, 0, 0, 0, 0]"] ;
263 -> 267 ;
268 [label="gini = 0.406\nsamples = 8\nvalue = [0, 0, 0, 6, 1, 1, 0, 0, 0, 0]"] ;
267 -> 268 ;
269 [label="gini = 0.681\nsamples = 36\nvalue = [0, 0, 5, 6, 17, 8, 0, 0, 0, 0]"] ;
267 -> 269 ;
270 [label="X[2] <= -0.291\ngini = 0.516\nsamples = 15\nvalue = [0, 0, 2, 10, 2, 0, 1, 0, 0, 0]"] ;
262 -> 270 ;
271 [label="X[2] <= -0.336\ngini = 0.5\nsamples = 2\nvalue = [0, 0, 0, 0, 1, 0, 1, 0, 0, 0]"] ;
270 -> 271 ;
272 [label="gini = 0.0\nsamples = 1\nvalue = [0, 0, 0, 0, 1, 0, 0, 0, 0, 0]"] ;
271 -> 272 ;
273 [label="gini = 0.0\nsamples = 1\nvalue = [0, 0, 0, 0, 0, 0, 1, 0, 0, 0]"] ;
271 -> 273 ;
274 [label="X[1] <= 0.749\ngini = 0.379\nsamples = 13\nvalue = [0, 0, 2, 10, 1, 0, 0, 0, 0, 0]"] ;
270 -> 274 ;
275 [label="gini = 0.292\nsamples = 12\nvalue = [0, 0, 1, 10, 1, 0, 0, 0, 0, 0]"] ;
274 -> 275 ;
276 [label="gini = 0.0\nsamples = 1\nvalue = [0, 0, 1, 0, 0, 0, 0, 0, 0, 0]"] ;
274 -> 276 ;
277 [label="X[0] <= 0.851\ngini = 0.663\nsamples = 88\nvalue = [0, 6, 27, 42, 8, 1, 4, 0, 0, 0]"] ;
261 -> 277 ;
278 [label="X[3] <= 0.503\ngini = 0.587\nsamples = 62\nvalue = [0, 3, 16, 36, 3, 0, 4, 0, 0, 0]"] ;
277 -> 278 ;
279 [label="X[3] <= 0.281\ngini = 0.411\nsamples = 28\nvalue = [0, 0, 4, 21, 2, 0, 1, 0, 0, 0]"] ;
278 -> 279 ;
280 [label="gini = 0.645\nsamples = 11\nvalue = [0, 0, 4, 5, 1, 0, 1, 0, 0, 0]"] ;
279 -> 280 ;
281 [label="gini = 0.111\nsamples = 17\nvalue = [0, 0, 0, 16, 1, 0, 0, 0, 0, 0]"] ;
279 -> 281 ;
282 [label="X[2] <= 0.616\ngini = 0.664\nsamples = 34\nvalue = [0, 3, 12, 15, 1, 0, 3, 0, 0, 0]"] ;
278 -> 282 ;
283 [label="gini = 0.56\nsamples = 15\nvalue = [0, 0, 9, 3, 0, 0, 3, 0, 0, 0]"] ;
282 -> 283 ;
284 [label="gini = 0.548\nsamples = 19\nvalue = [0, 3, 3, 12, 1, 0, 0, 0, 0, 0]"] ;
282 -> 284 ;
285 [label="X[2] <= 0.377\ngini = 0.716\nsamples = 26\nvalue = [0, 3, 11, 6, 5, 1, 0, 0, 0, 0]"] ;
277 -> 285 ;
286 [label="X[3] <= 0.489\ngini = 0.571\nsamples = 7\nvalue = [0, 0, 0, 4, 2, 1, 0, 0, 0, 0]"] ;
285 -> 286 ;
287 [label="gini = 0.444\nsamples = 3\nvalue = [0, 0, 0, 0, 2, 1, 0, 0, 0, 0]"] ;
286 -> 287 ;
288 [label="gini = 0.0\nsamples = 4\nvalue = [0, 0, 0, 4, 0, 0, 0, 0, 0, 0]"] ;
286 -> 288 ;
289 [label="X[1] <= 0.806\ngini = 0.604\nsamples = 19\nvalue = [0, 3, 11, 2, 3, 0, 0, 0, 0, 0]"] ;
285 -> 289 ;
290 [label="gini = 0.477\nsamples = 16\nvalue = [0, 3, 11, 2, 0, 0, 0, 0, 0, 0]"] ;
289 -> 290 ;
291 [label="gini = 0.0\nsamples = 3\nvalue = [0, 0, 0, 0, 3, 0, 0, 0, 0, 0]"] ;
289 -> 291 ;
292 [label="X[3] <= 1.04\ngini = 0.764\nsamples = 24\nvalue = [2, 5, 7, 0, 7, 3, 0, 0, 0, 0]"] ;
260 -> 292 ;
293 [label="X[3] <= 0.242\ngini = 0.667\nsamples = 18\nvalue = [0, 1, 7, 0, 7, 3, 0, 0, 0, 0]"] ;
292 -> 293 ;
294 [label="X[1] <= 0.636\ngini = 0.32\nsamples = 5\nvalue = [0, 1, 4, 0, 0, 0, 0, 0, 0, 0]"] ;
293 -> 294 ;
295 [label="gini = 0.0\nsamples = 4\nvalue = [0, 0, 4, 0, 0, 0, 0, 0, 0, 0]"] ;
294 -> 295 ;
296 [label="gini = 0.0\nsamples = 1\nvalue = [0, 1, 0, 0, 0, 0, 0, 0, 0, 0]"] ;
294 -> 296 ;
297 [label="X[2] <= 1.089\ngini = 0.604\nsamples = 13\nvalue = [0, 0, 3, 0, 7, 3, 0, 0, 0, 0]"] ;
293 -> 297 ;
298 [label="X[3] <= 0.573\ngini = 0.512\nsamples = 11\nvalue = [0, 0, 3, 0, 7, 1, 0, 0, 0, 0]"] ;
297 -> 298 ;
299 [label="gini = 0.0\nsamples = 5\nvalue = [0, 0, 0, 0, 5, 0, 0, 0, 0, 0]"] ;
298 -> 299 ;
300 [label="gini = 0.611\nsamples = 6\nvalue = [0, 0, 3, 0, 2, 1, 0, 0, 0, 0]"] ;
298 -> 300 ;
301 [label="gini = 0.0\nsamples = 2\nvalue = [0, 0, 0, 0, 0, 2, 0, 0, 0, 0]"] ;
297 -> 301 ;
302 [label="X[3] <= 1.203\ngini = 0.444\nsamples = 6\nvalue = [2, 4, 0, 0, 0, 0, 0, 0, 0, 0]"] ;
292 -> 302 ;
303 [label="gini = 0.0\nsamples = 3\nvalue = [0, 3, 0, 0, 0, 0, 0, 0, 0, 0]"] ;
302 -> 303 ;
304 [label="X[0] <= 0.709\ngini = 0.444\nsamples = 3\nvalue = [2, 1, 0, 0, 0, 0, 0, 0, 0, 0]"] ;
302 -> 304 ;
305 [label="gini = 0.0\nsamples = 1\nvalue = [0, 1, 0, 0, 0, 0, 0, 0, 0, 0]"] ;
304 -> 305 ;
306 [label="gini = 0.0\nsamples = 2\nvalue = [2, 0, 0, 0, 0, 0, 0, 0, 0, 0]"] ;
304 -> 306 ;
307 [label="X[0] <= 1.093\ngini = 0.624\nsamples = 53\nvalue = [2, 6, 21, 24, 0, 0, 0, 0, 0, 0]"] ;
229 -> 307 ;
308 [label="X[1] <= 1.037\ngini = 0.596\nsamples = 41\nvalue = [2, 5, 11, 23, 0, 0, 0, 0, 0, 0]"] ;
307 -> 308 ;
309 [label="X[3] <= 0.054\ngini = 0.649\nsamples = 31\nvalue = [2, 4, 11, 14, 0, 0, 0, 0, 0, 0]"] ;
308 -> 309 ;
310 [label="X[2] <= 1.35\ngini = 0.551\nsamples = 15\nvalue = [0, 2, 9, 4, 0, 0, 0, 0, 0, 0]"] ;
309 -> 310 ;
311 [label="X[0] <= 0.092\ngini = 0.462\nsamples = 13\nvalue = [0, 1, 9, 3, 0, 0, 0, 0, 0, 0]"] ;
310 -> 311 ;
312 [label="gini = 0.0\nsamples = 1\nvalue = [0, 0, 0, 1, 0, 0, 0, 0, 0, 0]"] ;
311 -> 312 ;
313 [label="X[3] <= -0.023\ngini = 0.403\nsamples = 12\nvalue = [0, 1, 9, 2, 0, 0, 0, 0, 0, 0]"] ;
311 -> 313 ;
314 [label="gini = 0.32\nsamples = 10\nvalue = [0, 0, 8, 2, 0, 0, 0, 0, 0, 0]"] ;
313 -> 314 ;
315 [label="gini = 0.5\nsamples = 2\nvalue = [0, 1, 1, 0, 0, 0, 0, 0, 0, 0]"] ;
313 -> 315 ;
316 [label="X[2] <= 1.515\ngini = 0.5\nsamples = 2\nvalue = [0, 1, 0, 1, 0, 0, 0, 0, 0, 0]"] ;
310 -> 316 ;
317 [label="gini = 0.0\nsamples = 1\nvalue = [0, 1, 0, 0, 0, 0, 0, 0, 0, 0]"] ;
316 -> 317 ;
318 [label="gini = 0.0\nsamples = 1\nvalue = [0, 0, 0, 1, 0, 0, 0, 0, 0, 0]"] ;
316 -> 318 ;
319 [label="X[1] <= 0.955\ngini = 0.562\nsamples = 16\nvalue = [2, 2, 2, 10, 0, 0, 0, 0, 0, 0]"] ;
309 -> 319 ;
320 [label="gini = 0.0\nsamples = 6\nvalue = [0, 0, 0, 6, 0, 0, 0, 0, 0, 0]"] ;
319 -> 320 ;
321 [label="X[2] <= 1.339\ngini = 0.72\nsamples = 10\nvalue = [2, 2, 2, 4, 0, 0, 0, 0, 0, 0]"] ;
319 -> 321 ;
322 [label="X[2] <= 1.293\ngini = 0.735\nsamples = 7\nvalue = [2, 2, 2, 1, 0, 0, 0, 0, 0, 0]"] ;
321 -> 322 ;
323 [label="gini = 0.64\nsamples = 5\nvalue = [0, 2, 2, 1, 0, 0, 0, 0, 0, 0]"] ;
322 -> 323 ;
324 [label="gini = 0.0\nsamples = 2\nvalue = [2, 0, 0, 0, 0, 0, 0, 0, 0, 0]"] ;
322 -> 324 ;
325 [label="gini = 0.0\nsamples = 3\nvalue = [0, 0, 0, 3, 0, 0, 0, 0, 0, 0]"] ;
321 -> 325 ;
326 [label="X[3] <= 0.823\ngini = 0.18\nsamples = 10\nvalue = [0, 1, 0, 9, 0, 0, 0, 0, 0, 0]"] ;
308 -> 326 ;
327 [label="gini = 0.0\nsamples = 8\nvalue = [0, 0, 0, 8, 0, 0, 0, 0, 0, 0]"] ;
326 -> 327 ;
328 [label="X[2] <= 0.614\ngini = 0.5\nsamples = 2\nvalue = [0, 1, 0, 1, 0, 0, 0, 0, 0, 0]"] ;
326 -> 328 ;
329 [label="gini = 0.0\nsamples = 1\nvalue = [0, 0, 0, 1, 0, 0, 0, 0, 0, 0]"] ;
328 -> 329 ;
330 [label="gini = 0.0\nsamples = 1\nvalue = [0, 1, 0, 0, 0, 0, 0, 0, 0, 0]"] ;
328 -> 330 ;
331 [label="X[1] <= 0.929\ngini = 0.292\nsamples = 12\nvalue = [0, 1, 10, 1, 0, 0, 0, 0, 0, 0]"] ;
307 -> 331 ;
332 [label="X[0] <= 1.18\ngini = 0.5\nsamples = 2\nvalue = [0, 0, 1, 1, 0, 0, 0, 0, 0, 0]"] ;
331 -> 332 ;
333 [label="gini = 0.0\nsamples = 1\nvalue = [0, 0, 0, 1, 0, 0, 0, 0, 0, 0]"] ;
332 -> 333 ;
334 [label="gini = 0.0\nsamples = 1\nvalue = [0, 0, 1, 0, 0, 0, 0, 0, 0, 0]"] ;
332 -> 334 ;
335 [label="X[0] <= 1.2\ngini = 0.18\nsamples = 10\nvalue = [0, 1, 9, 0, 0, 0, 0, 0, 0, 0]"] ;
331 -> 335 ;
336 [label="gini = 0.0\nsamples = 7\nvalue = [0, 0, 7, 0, 0, 0, 0, 0, 0, 0]"] ;
335 -> 336 ;
337 [label="X[1] <= 0.98\ngini = 0.444\nsamples = 3\nvalue = [0, 1, 2, 0, 0, 0, 0, 0, 0, 0]"] ;
335 -> 337 ;
338 [label="gini = 0.0\nsamples = 1\nvalue = [0, 1, 0, 0, 0, 0, 0, 0, 0, 0]"] ;
337 -> 338 ;
339 [label="gini = 0.0\nsamples = 2\nvalue = [0, 0, 2, 0, 0, 0, 0, 0, 0, 0]"] ;
337 -> 339 ;
340 [label="X[3] <= 1.093\ngini = 0.671\nsamples = 166\nvalue = [69, 59, 26, 12, 0, 0, 0, 0, 0, 0]"] ;
0 -> 340 [labeldistance=2.5, labelangle=-45, headlabel="False"] ;
341 [label="X[2] <= 1.25\ngini = 0.656\nsamples = 91\nvalue = [12, 46, 21, 12, 0, 0, 0, 0, 0, 0]"] ;
340 -> 341 ;
342 [label="X[2] <= 0.037\ngini = 0.516\nsamples = 69\nvalue = [8, 46, 10, 5, 0, 0, 0, 0, 0, 0]"] ;
341 -> 342 ;
343 [label="gini = 0.0\nsamples = 6\nvalue = [0, 0, 6, 0, 0, 0, 0, 0, 0, 0]"] ;
342 -> 343 ;
344 [label="X[0] <= 0.63\ngini = 0.44\nsamples = 63\nvalue = [8, 46, 4, 5, 0, 0, 0, 0, 0, 0]"] ;
342 -> 344 ;
345 [label="X[2] <= 1.023\ngini = 0.631\nsamples = 15\nvalue = [0, 7, 3, 5, 0, 0, 0, 0, 0, 0]"] ;
344 -> 345 ;
346 [label="X[0] <= 0.472\ngini = 0.593\nsamples = 9\nvalue = [0, 2, 2, 5, 0, 0, 0, 0, 0, 0]"] ;
345 -> 346 ;
347 [label="X[2] <= 0.92\ngini = 0.444\nsamples = 6\nvalue = [0, 2, 0, 4, 0, 0, 0, 0, 0, 0]"] ;
346 -> 347 ;
348 [label="X[0] <= 0.418\ngini = 0.444\nsamples = 3\nvalue = [0, 2, 0, 1, 0, 0, 0, 0, 0, 0]"] ;
347 -> 348 ;
349 [label="gini = 0.0\nsamples = 2\nvalue = [0, 2, 0, 0, 0, 0, 0, 0, 0, 0]"] ;
348 -> 349 ;
350 [label="gini = 0.0\nsamples = 1\nvalue = [0, 0, 0, 1, 0, 0, 0, 0, 0, 0]"] ;
348 -> 350 ;
351 [label="gini = 0.0\nsamples = 3\nvalue = [0, 0, 0, 3, 0, 0, 0, 0, 0, 0]"] ;
347 -> 351 ;
352 [label="X[2] <= 0.403\ngini = 0.444\nsamples = 3\nvalue = [0, 0, 2, 1, 0, 0, 0, 0, 0, 0]"] ;
346 -> 352 ;
353 [label="gini = 0.0\nsamples = 1\nvalue = [0, 0, 0, 1, 0, 0, 0, 0, 0, 0]"] ;
352 -> 353 ;
354 [label="gini = 0.0\nsamples = 2\nvalue = [0, 0, 2, 0, 0, 0, 0, 0, 0, 0]"] ;
352 -> 354 ;
355 [label="X[0] <= 0.285\ngini = 0.278\nsamples = 6\nvalue = [0, 5, 1, 0, 0, 0, 0, 0, 0, 0]"] ;
345 -> 355 ;
356 [label="gini = 0.0\nsamples = 1\nvalue = [0, 0, 1, 0, 0, 0, 0, 0, 0, 0]"] ;
355 -> 356 ;
357 [label="gini = 0.0\nsamples = 5\nvalue = [0, 5, 0, 0, 0, 0, 0, 0, 0, 0]"] ;
355 -> 357 ;
358 [label="X[1] <= 1.267\ngini = 0.312\nsamples = 48\nvalue = [8, 39, 1, 0, 0, 0, 0, 0, 0, 0]"] ;
344 -> 358 ;
359 [label="X[1] <= 1.14\ngini = 0.087\nsamples = 22\nvalue = [0, 21, 1, 0, 0, 0, 0, 0, 0, 0]"] ;
358 -> 359 ;
360 [label="X[1] <= 1.129\ngini = 0.375\nsamples = 4\nvalue = [0, 3, 1, 0, 0, 0, 0, 0, 0, 0]"] ;
359 -> 360 ;
361 [label="gini = 0.0\nsamples = 3\nvalue = [0, 3, 0, 0, 0, 0, 0, 0, 0, 0]"] ;
360 -> 361 ;
362 [label="gini = 0.0\nsamples = 1\nvalue = [0, 0, 1, 0, 0, 0, 0, 0, 0, 0]"] ;
360 -> 362 ;
363 [label="gini = 0.0\nsamples = 18\nvalue = [0, 18, 0, 0, 0, 0, 0, 0, 0, 0]"] ;
359 -> 363 ;
364 [label="X[0] <= 0.823\ngini = 0.426\nsamples = 26\nvalue = [8, 18, 0, 0, 0, 0, 0, 0, 0, 0]"] ;
358 -> 364 ;
365 [label="gini = 0.0\nsamples = 6\nvalue = [0, 6, 0, 0, 0, 0, 0, 0, 0, 0]"] ;
364 -> 365 ;
366 [label="X[0] <= 1.082\ngini = 0.48\nsamples = 20\nvalue = [8, 12, 0, 0, 0, 0, 0, 0, 0, 0]"] ;
364 -> 366 ;
367 [label="X[0] <= 1.044\ngini = 0.498\nsamples = 15\nvalue = [8, 7, 0, 0, 0, 0, 0, 0, 0, 0]"] ;
366 -> 367 ;
368 [label="X[0] <= 0.926\ngini = 0.463\nsamples = 11\nvalue = [4, 7, 0, 0, 0, 0, 0, 0, 0, 0]"] ;
367 -> 368 ;
369 [label="gini = 0.444\nsamples = 6\nvalue = [4, 2, 0, 0, 0, 0, 0, 0, 0, 0]"] ;
368 -> 369 ;
370 [label="gini = 0.0\nsamples = 5\nvalue = [0, 5, 0, 0, 0, 0, 0, 0, 0, 0]"] ;
368 -> 370 ;
371 [label="gini = 0.0\nsamples = 4\nvalue = [4, 0, 0, 0, 0, 0, 0, 0, 0, 0]"] ;
367 -> 371 ;
372 [label="gini = 0.0\nsamples = 5\nvalue = [0, 5, 0, 0, 0, 0, 0, 0, 0, 0]"] ;
366 -> 372 ;
373 [label="X[3] <= -0.699\ngini = 0.616\nsamples = 22\nvalue = [4, 0, 11, 7, 0, 0, 0, 0, 0, 0]"] ;
341 -> 373 ;
374 [label="X[0] <= 0.834\ngini = 0.32\nsamples = 5\nvalue = [0, 0, 1, 4, 0, 0, 0, 0, 0, 0]"] ;
373 -> 374 ;
375 [label="gini = 0.0\nsamples = 3\nvalue = [0, 0, 0, 3, 0, 0, 0, 0, 0, 0]"] ;
374 -> 375 ;
376 [label="X[3] <= -1.415\ngini = 0.5\nsamples = 2\nvalue = [0, 0, 1, 1, 0, 0, 0, 0, 0, 0]"] ;
374 -> 376 ;
377 [label="gini = 0.0\nsamples = 1\nvalue = [0, 0, 0, 1, 0, 0, 0, 0, 0, 0]"] ;
376 -> 377 ;
378 [label="gini = 0.0\nsamples = 1\nvalue = [0, 0, 1, 0, 0, 0, 0, 0, 0, 0]"] ;
376 -> 378 ;
379 [label="X[3] <= 0.546\ngini = 0.567\nsamples = 17\nvalue = [4, 0, 10, 3, 0, 0, 0, 0, 0, 0]"] ;
373 -> 379 ;
380 [label="gini = 0.0\nsamples = 6\nvalue = [0, 0, 6, 0, 0, 0, 0, 0, 0, 0]"] ;
379 -> 380 ;
381 [label="X[0] <= 0.8\ngini = 0.661\nsamples = 11\nvalue = [4, 0, 4, 3, 0, 0, 0, 0, 0, 0]"] ;
379 -> 381 ;
382 [label="X[3] <= 0.68\ngini = 0.32\nsamples = 5\nvalue = [1, 0, 4, 0, 0, 0, 0, 0, 0, 0]"] ;
381 -> 382 ;
383 [label="gini = 0.0\nsamples = 1\nvalue = [1, 0, 0, 0, 0, 0, 0, 0, 0, 0]"] ;
382 -> 383 ;
384 [label="gini = 0.0\nsamples = 4\nvalue = [0, 0, 4, 0, 0, 0, 0, 0, 0, 0]"] ;
382 -> 384 ;
385 [label="X[2] <= 1.419\ngini = 0.5\nsamples = 6\nvalue = [3, 0, 0, 3, 0, 0, 0, 0, 0, 0]"] ;
381 -> 385 ;
386 [label="gini = 0.0\nsamples = 3\nvalue = [3, 0, 0, 0, 0, 0, 0, 0, 0, 0]"] ;
385 -> 386 ;
387 [label="gini = 0.0\nsamples = 3\nvalue = [0, 0, 0, 3, 0, 0, 0, 0, 0, 0]"] ;
385 -> 387 ;
388 [label="X[0] <= 0.779\ngini = 0.388\nsamples = 75\nvalue = [57, 13, 5, 0, 0, 0, 0, 0, 0, 0]"] ;
340 -> 388 ;
389 [label="X[3] <= 1.371\ngini = 0.5\nsamples = 8\nvalue = [0, 4, 4, 0, 0, 0, 0, 0, 0, 0]"] ;
388 -> 389 ;
390 [label="gini = 0.0\nsamples = 4\nvalue = [0, 0, 4, 0, 0, 0, 0, 0, 0, 0]"] ;
389 -> 390 ;
391 [label="gini = 0.0\nsamples = 4\nvalue = [0, 4, 0, 0, 0, 0, 0, 0, 0, 0]"] ;
389 -> 391 ;
392 [label="X[1] <= 1.645\ngini = 0.258\nsamples = 67\nvalue = [57, 9, 1, 0, 0, 0, 0, 0, 0, 0]"] ;
388 -> 392 ;
393 [label="X[2] <= 1.056\ngini = 0.216\nsamples = 65\nvalue = [57, 8, 0, 0, 0, 0, 0, 0, 0, 0]"] ;
392 -> 393 ;
394 [label="X[1] <= 1.176\ngini = 0.42\nsamples = 10\nvalue = [7, 3, 0, 0, 0, 0, 0, 0, 0, 0]"] ;
393 -> 394 ;
395 [label="gini = 0.0\nsamples = 6\nvalue = [6, 0, 0, 0, 0, 0, 0, 0, 0, 0]"] ;
394 -> 395 ;
396 [label="X[1] <= 1.236\ngini = 0.375\nsamples = 4\nvalue = [1, 3, 0, 0, 0, 0, 0, 0, 0, 0]"] ;
394 -> 396 ;
397 [label="gini = 0.0\nsamples = 2\nvalue = [0, 2, 0, 0, 0, 0, 0, 0, 0, 0]"] ;
396 -> 397 ;
398 [label="X[2] <= 1.023\ngini = 0.5\nsamples = 2\nvalue = [1, 1, 0, 0, 0, 0, 0, 0, 0, 0]"] ;
396 -> 398 ;
399 [label="gini = 0.0\nsamples = 1\nvalue = [1, 0, 0, 0, 0, 0, 0, 0, 0, 0]"] ;
398 -> 399 ;
400 [label="gini = 0.0\nsamples = 1\nvalue = [0, 1, 0, 0, 0, 0, 0, 0, 0, 0]"] ;
398 -> 400 ;
401 [label="X[1] <= 1.116\ngini = 0.165\nsamples = 55\nvalue = [50, 5, 0, 0, 0, 0, 0, 0, 0, 0]"] ;
393 -> 401 ;
402 [label="gini = 0.0\nsamples = 1\nvalue = [0, 1, 0, 0, 0, 0, 0, 0, 0, 0]"] ;
401 -> 402 ;
403 [label="X[1] <= 1.492\ngini = 0.137\nsamples = 54\nvalue = [50, 4, 0, 0, 0, 0, 0, 0, 0, 0]"] ;
401 -> 403 ;
404 [label="X[0] <= 1.027\ngini = 0.111\nsamples = 51\nvalue = [48, 3, 0, 0, 0, 0, 0, 0, 0, 0]"] ;
403 -> 404 ;
405 [label="X[0] <= 1.025\ngini = 0.278\nsamples = 12\nvalue = [10, 2, 0, 0, 0, 0, 0, 0, 0, 0]"] ;
404 -> 405 ;
406 [label="X[1] <= 1.204\ngini = 0.165\nsamples = 11\nvalue = [10, 1, 0, 0, 0, 0, 0, 0, 0, 0]"] ;
405 -> 406 ;
407 [label="gini = 0.444\nsamples = 3\nvalue = [2, 1, 0, 0, 0, 0, 0, 0, 0, 0]"] ;
406 -> 407 ;
408 [label="gini = 0.0\nsamples = 8\nvalue = [8, 0, 0, 0, 0, 0, 0, 0, 0, 0]"] ;
406 -> 408 ;
409 [label="gini = 0.0\nsamples = 1\nvalue = [0, 1, 0, 0, 0, 0, 0, 0, 0, 0]"] ;
405 -> 409 ;
410 [label="X[0] <= 1.391\ngini = 0.05\nsamples = 39\nvalue = [38, 1, 0, 0, 0, 0, 0, 0, 0, 0]"] ;
404 -> 410 ;
411 [label="gini = 0.0\nsamples = 35\nvalue = [35, 0, 0, 0, 0, 0, 0, 0, 0, 0]"] ;
410 -> 411 ;
412 [label="X[0] <= 1.403\ngini = 0.375\nsamples = 4\nvalue = [3, 1, 0, 0, 0, 0, 0, 0, 0, 0]"] ;
410 -> 412 ;
413 [label="gini = 0.0\nsamples = 1\nvalue = [0, 1, 0, 0, 0, 0, 0, 0, 0, 0]"] ;
412 -> 413 ;
414 [label="gini = 0.0\nsamples = 3\nvalue = [3, 0, 0, 0, 0, 0, 0, 0, 0, 0]"] ;
412 -> 414 ;
415 [label="X[2] <= 1.217\ngini = 0.444\nsamples = 3\nvalue = [2, 1, 0, 0, 0, 0, 0, 0, 0, 0]"] ;
403 -> 415 ;
416 [label="gini = 0.0\nsamples = 1\nvalue = [0, 1, 0, 0, 0, 0, 0, 0, 0, 0]"] ;
415 -> 416 ;
417 [label="gini = 0.0\nsamples = 2\nvalue = [2, 0, 0, 0, 0, 0, 0, 0, 0, 0]"] ;
415 -> 417 ;
418 [label="X[1] <= 1.832\ngini = 0.5\nsamples = 2\nvalue = [0, 1, 1, 0, 0, 0, 0, 0, 0, 0]"] ;
392 -> 418 ;
419 [label="gini = 0.0\nsamples = 1\nvalue = [0, 0, 1, 0, 0, 0, 0, 0, 0, 0]"] ;
418 -> 419 ;
420 [label="gini = 0.0\nsamples = 1\nvalue = [0, 1, 0, 0, 0, 0, 0, 0, 0, 0]"] ;
418 -> 420 ;
}
