digraph Tree {
node [shape=box, fontname="helvetica"] ;
edge [fontname="helvetica"] ;
rankdir=LR ;
0 [label="Log GDP per capita <= 1.054\ngini = 0.874\nsamples = 931\nvalue = [72, 80, 106, 170, 138, 144, 112, 59, 36, 14]"] ;
1 [label="Social support <= -0.083\ngini = 0.847\nsamples = 760\nvalue = [5, 19, 75, 158, 138, 144, 112, 59, 36, 14]"] ;
0 -> 1 [labeldistance=2.5, labelangle=-45, headlabel="True"] ;
2 [label="Log GDP per capita <= -1.123\ngini = 0.807\nsamples = 359\nvalue = [1, 1, 3, 18, 51, 99, 94, 44, 34, 14]"] ;
1 -> 2 ;
3 [label="Freedom to make life choices <= -2.66\ngini = 0.795\nsamples = 133\nvalue = [0, 0, 0, 2, 5, 24, 39, 25, 28, 10]"] ;
2 -> 3 ;
4 [label="gini = 0.0\nsamples = 4\nvalue = [0, 0, 0, 0, 0, 0, 0, 0, 0, 4]"] ;
3 -> 4 ;
5 [label="Log GDP per capita <= -2.206\ngini = 0.785\nsamples = 129\nvalue = [0, 0, 0, 2, 5, 24, 39, 25, 28, 6]"] ;
3 -> 5 ;
6 [label="Freedom to make life choices <= -0.362\ngini = 0.375\nsamples = 4\nvalue = [0, 0, 0, 0, 3, 0, 0, 1, 0, 0]"] ;
5 -> 6 ;
7 [label="gini = 0.0\nsamples = 1\nvalue = [0, 0, 0, 0, 0, 0, 0, 1, 0, 0]"] ;
6 -> 7 ;
8 [label="gini = 0.0\nsamples = 3\nvalue = [0, 0, 0, 0, 3, 0, 0, 0, 0, 0]"] ;
6 -> 8 ;
9 [label="Healthy life expectancy at birth <= -1.423\ngini = 0.776\nsamples = 125\nvalue = [0, 0, 0, 2, 2, 24, 39, 24, 28, 6]"] ;
5 -> 9 ;
10 [label="Social support <= -0.476\ngini = 0.757\nsamples = 66\nvalue = [0, 0, 0, 1, 1, 19, 21, 9, 13, 2]"] ;
9 -> 10 ;
11 [label="Log GDP per capita <= -1.58\ngini = 0.746\nsamples = 59\nvalue = [0, 0, 0, 1, 1, 19, 18, 5, 13, 2]"] ;
10 -> 11 ;
12 [label="Healthy life expectancy at birth <= -1.978\ngini = 0.742\nsamples = 30\nvalue = [0, 0, 0, 0, 1, 6, 12, 5, 5, 1]"] ;
11 -> 12 ;
13 [label="Social support <= -0.846\ngini = 0.5\nsamples = 12\nvalue = [0, 0, 0, 0, 0, 2, 8, 0, 2, 0]"] ;
12 -> 13 ;
14 [label="gini = 0.219\nsamples = 8\nvalue = [0, 0, 0, 0, 0, 0, 7, 0, 1, 0]"] ;
13 -> 14 ;
15 [label="gini = 0.625\nsamples = 4\nvalue = [0, 0, 0, 0, 0, 2, 1, 0, 1, 0]"] ;
13 -> 15 ;
16 [label="Healthy life expectancy at birth <= -1.462\ngini = 0.79\nsamples = 18\nvalue = [0, 0, 0, 0, 1, 4, 4, 5, 3, 1]"] ;
12 -> 16 ;
17 [label="gini = 0.781\nsamples = 16\nvalue = [0, 0, 0, 0, 1, 2, 4, 5, 3, 1]"] ;
16 -> 17 ;
18 [label="gini = 0.0\nsamples = 2\nvalue = [0, 0, 0, 0, 0, 2, 0, 0, 0, 0]"] ;
16 -> 18 ;
19 [label="Freedom to make life choices <= -0.211\ngini = 0.678\nsamples = 29\nvalue = [0, 0, 0, 1, 0, 13, 6, 0, 8, 1]"] ;
11 -> 19 ;
20 [label="Log GDP per capita <= -1.266\ngini = 0.657\nsamples = 26\nvalue = [0, 0, 0, 1, 0, 13, 6, 0, 5, 1]"] ;
19 -> 20 ;
21 [label="gini = 0.594\nsamples = 21\nvalue = [0, 0, 0, 0, 0, 12, 3, 0, 5, 1]"] ;
20 -> 21 ;
22 [label="gini = 0.56\nsamples = 5\nvalue = [0, 0, 0, 1, 0, 1, 3, 0, 0, 0]"] ;
20 -> 22 ;
23 [label="gini = 0.0\nsamples = 3\nvalue = [0, 0, 0, 0, 0, 0, 0, 0, 3, 0]"] ;
19 -> 23 ;
24 [label="Log GDP per capita <= -1.753\ngini = 0.49\nsamples = 7\nvalue = [0, 0, 0, 0, 0, 0, 3, 4, 0, 0]"] ;
10 -> 24 ;
25 [label="gini = 0.0\nsamples = 2\nvalue = [0, 0, 0, 0, 0, 0, 0, 2, 0, 0]"] ;
24 -> 25 ;
26 [label="Healthy life expectancy at birth <= -2.503\ngini = 0.48\nsamples = 5\nvalue = [0, 0, 0, 0, 0, 0, 3, 2, 0, 0]"] ;
24 -> 26 ;
27 [label="gini = 0.0\nsamples = 2\nvalue = [0, 0, 0, 0, 0, 0, 0, 2, 0, 0]"] ;
26 -> 27 ;
28 [label="gini = 0.0\nsamples = 3\nvalue = [0, 0, 0, 0, 0, 0, 3, 0, 0, 0]"] ;
26 -> 28 ;
29 [label="Social support <= -0.992\ngini = 0.765\nsamples = 59\nvalue = [0, 0, 0, 1, 1, 5, 18, 15, 15, 4]"] ;
9 -> 29 ;
30 [label="Social support <= -2.549\ngini = 0.742\nsamples = 32\nvalue = [0, 0, 0, 0, 0, 3, 5, 11, 10, 3]"] ;
29 -> 30 ;
31 [label="Healthy life expectancy at birth <= -1.41\ngini = 0.375\nsamples = 4\nvalue = [0, 0, 0, 0, 0, 0, 0, 0, 3, 1]"] ;
30 -> 31 ;
32 [label="gini = 0.0\nsamples = 1\nvalue = [0, 0, 0, 0, 0, 0, 0, 0, 0, 1]"] ;
31 -> 32 ;
33 [label="gini = 0.0\nsamples = 3\nvalue = [0, 0, 0, 0, 0, 0, 0, 0, 3, 0]"] ;
31 -> 33 ;
34 [label="Log GDP per capita <= -1.143\ngini = 0.735\nsamples = 28\nvalue = [0, 0, 0, 0, 0, 3, 5, 11, 7, 2]"] ;
30 -> 34 ;
35 [label="Healthy life expectancy at birth <= -1.237\ngini = 0.728\nsamples = 26\nvalue = [0, 0, 0, 0, 0, 3, 5, 11, 5, 2]"] ;
34 -> 35 ;
36 [label="gini = 0.469\nsamples = 8\nvalue = [0, 0, 0, 0, 0, 0, 3, 5, 0, 0]"] ;
35 -> 36 ;
37 [label="gini = 0.759\nsamples = 18\nvalue = [0, 0, 0, 0, 0, 3, 2, 6, 5, 2]"] ;
35 -> 37 ;
38 [label="gini = 0.0\nsamples = 2\nvalue = [0, 0, 0, 0, 0, 0, 0, 0, 2, 0]"] ;
34 -> 38 ;
39 [label="Log GDP per capita <= -1.28\ngini = 0.702\nsamples = 27\nvalue = [0, 0, 0, 1, 1, 2, 13, 4, 5, 1]"] ;
29 -> 39 ;
40 [label="Healthy life expectancy at birth <= -1.083\ngini = 0.769\nsamples = 22\nvalue = [0, 0, 0, 1, 1, 2, 8, 4, 5, 1]"] ;
39 -> 40 ;
41 [label="Freedom to make life choices <= 0.113\ngini = 0.32\nsamples = 5\nvalue = [0, 0, 0, 0, 0, 0, 4, 1, 0, 0]"] ;
40 -> 41 ;
42 [label="gini = 0.0\nsamples = 4\nvalue = [0, 0, 0, 0, 0, 0, 4, 0, 0, 0]"] ;
41 -> 42 ;
43 [label="gini = 0.0\nsamples = 1\nvalue = [0, 0, 0, 0, 0, 0, 0, 1, 0, 0]"] ;
41 -> 43 ;
44 [label="Freedom to make life choices <= 0.029\ngini = 0.803\nsamples = 17\nvalue = [0, 0, 0, 1, 1, 2, 4, 3, 5, 1]"] ;
40 -> 44 ;
45 [label="gini = 0.818\nsamples = 15\nvalue = [0, 0, 0, 1, 1, 2, 4, 3, 3, 1]"] ;
44 -> 45 ;
46 [label="gini = 0.0\nsamples = 2\nvalue = [0, 0, 0, 0, 0, 0, 0, 0, 2, 0]"] ;
44 -> 46 ;
47 [label="gini = 0.0\nsamples = 5\nvalue = [0, 0, 0, 0, 0, 0, 5, 0, 0, 0]"] ;
39 -> 47 ;
48 [label="Log GDP per capita <= 0.953\ngini = 0.776\nsamples = 226\nvalue = [1, 1, 3, 16, 46, 75, 55, 19, 6, 4]"] ;
2 -> 48 ;
49 [label="Social support <= -0.55\ngini = 0.768\nsamples = 221\nvalue = [1, 1, 3, 11, 46, 75, 55, 19, 6, 4]"] ;
48 -> 49 ;
50 [label="Healthy life expectancy at birth <= 0.011\ngini = 0.73\nsamples = 126\nvalue = [0, 0, 0, 2, 21, 43, 43, 11, 3, 3]"] ;
49 -> 50 ;
51 [label="Healthy life expectancy at birth <= -0.042\ngini = 0.757\nsamples = 75\nvalue = [0, 0, 0, 2, 17, 26, 18, 8, 3, 1]"] ;
50 -> 51 ;
52 [label="Social support <= -0.891\ngini = 0.753\nsamples = 71\nvalue = [0, 0, 0, 2, 13, 26, 18, 8, 3, 1]"] ;
51 -> 52 ;
53 [label="Healthy life expectancy at birth <= -1.38\ngini = 0.742\nsamples = 44\nvalue = [0, 0, 0, 2, 8, 19, 6, 5, 3, 1]"] ;
52 -> 53 ;
54 [label="Log GDP per capita <= -1.069\ngini = 0.198\nsamples = 9\nvalue = [0, 0, 0, 0, 0, 8, 0, 0, 1, 0]"] ;
53 -> 54 ;
55 [label="gini = 0.0\nsamples = 1\nvalue = [0, 0, 0, 0, 0, 0, 0, 0, 1, 0]"] ;
54 -> 55 ;
56 [label="gini = 0.0\nsamples = 8\nvalue = [0, 0, 0, 0, 0, 8, 0, 0, 0, 0]"] ;
54 -> 56 ;
57 [label="Log GDP per capita <= -0.535\ngini = 0.792\nsamples = 35\nvalue = [0, 0, 0, 2, 8, 11, 6, 5, 2, 1]"] ;
53 -> 57 ;
58 [label="gini = 0.809\nsamples = 28\nvalue = [0, 0, 0, 2, 8, 5, 6, 4, 2, 1]"] ;
57 -> 58 ;
59 [label="gini = 0.245\nsamples = 7\nvalue = [0, 0, 0, 0, 0, 6, 0, 1, 0, 0]"] ;
57 -> 59 ;
60 [label="Log GDP per capita <= -1.046\ngini = 0.689\nsamples = 27\nvalue = [0, 0, 0, 0, 5, 7, 12, 3, 0, 0]"] ;
52 -> 60 ;
61 [label="Log GDP per capita <= -1.111\ngini = 0.48\nsamples = 5\nvalue = [0, 0, 0, 0, 2, 3, 0, 0, 0, 0]"] ;
60 -> 61 ;
62 [label="gini = 0.0\nsamples = 2\nvalue = [0, 0, 0, 0, 2, 0, 0, 0, 0, 0]"] ;
61 -> 62 ;
63 [label="gini = 0.0\nsamples = 3\nvalue = [0, 0, 0, 0, 0, 3, 0, 0, 0, 0]"] ;
61 -> 63 ;
64 [label="Social support <= -0.668\ngini = 0.632\nsamples = 22\nvalue = [0, 0, 0, 0, 3, 4, 12, 3, 0, 0]"] ;
60 -> 64 ;
65 [label="gini = 0.436\nsamples = 15\nvalue = [0, 0, 0, 0, 1, 1, 11, 2, 0, 0]"] ;
64 -> 65 ;
66 [label="gini = 0.694\nsamples = 7\nvalue = [0, 0, 0, 0, 2, 3, 1, 1, 0, 0]"] ;
64 -> 66 ;
67 [label="gini = 0.0\nsamples = 4\nvalue = [0, 0, 0, 0, 4, 0, 0, 0, 0, 0]"] ;
51 -> 67 ;
68 [label="Social support <= -1.197\ngini = 0.637\nsamples = 51\nvalue = [0, 0, 0, 0, 4, 17, 25, 3, 0, 2]"] ;
50 -> 68 ;
69 [label="Freedom to make life choices <= -2.009\ngini = 0.504\nsamples = 22\nvalue = [0, 0, 0, 0, 1, 3, 15, 1, 0, 2]"] ;
68 -> 69 ;
70 [label="gini = 0.0\nsamples = 2\nvalue = [0, 0, 0, 0, 0, 0, 0, 0, 0, 2]"] ;
69 -> 70 ;
71 [label="Log GDP per capita <= 0.064\ngini = 0.41\nsamples = 20\nvalue = [0, 0, 0, 0, 1, 3, 15, 1, 0, 0]"] ;
69 -> 71 ;
72 [label="Log GDP per capita <= 0.008\ngini = 0.556\nsamples = 13\nvalue = [0, 0, 0, 0, 1, 3, 8, 1, 0, 0]"] ;
71 -> 72 ;
73 [label="gini = 0.245\nsamples = 7\nvalue = [0, 0, 0, 0, 1, 0, 6, 0, 0, 0]"] ;
72 -> 73 ;
74 [label="gini = 0.611\nsamples = 6\nvalue = [0, 0, 0, 0, 0, 3, 2, 1, 0, 0]"] ;
72 -> 74 ;
75 [label="gini = 0.0\nsamples = 7\nvalue = [0, 0, 0, 0, 0, 0, 7, 0, 0, 0]"] ;
71 -> 75 ;
76 [label="Log GDP per capita <= -0.025\ngini = 0.633\nsamples = 29\nvalue = [0, 0, 0, 0, 3, 14, 10, 2, 0, 0]"] ;
68 -> 76 ;
77 [label="Freedom to make life choices <= -1.689\ngini = 0.602\nsamples = 14\nvalue = [0, 0, 0, 0, 1, 3, 8, 2, 0, 0]"] ;
76 -> 77 ;
78 [label="Log GDP per capita <= -0.096\ngini = 0.444\nsamples = 3\nvalue = [0, 0, 0, 0, 0, 2, 0, 1, 0, 0]"] ;
77 -> 78 ;
79 [label="gini = 0.0\nsamples = 2\nvalue = [0, 0, 0, 0, 0, 2, 0, 0, 0, 0]"] ;
78 -> 79 ;
80 [label="gini = 0.0\nsamples = 1\nvalue = [0, 0, 0, 0, 0, 0, 0, 1, 0, 0]"] ;
78 -> 80 ;
81 [label="Social support <= -0.966\ngini = 0.446\nsamples = 11\nvalue = [0, 0, 0, 0, 1, 1, 8, 1, 0, 0]"] ;
77 -> 81 ;
82 [label="gini = 0.5\nsamples = 2\nvalue = [0, 0, 0, 0, 1, 0, 0, 1, 0, 0]"] ;
81 -> 82 ;
83 [label="gini = 0.198\nsamples = 9\nvalue = [0, 0, 0, 0, 0, 1, 8, 0, 0, 0]"] ;
81 -> 83 ;
84 [label="Social support <= -0.591\ngini = 0.427\nsamples = 15\nvalue = [0, 0, 0, 0, 2, 11, 2, 0, 0, 0]"] ;
76 -> 84 ;
85 [label="Freedom to make life choices <= 0.338\ngini = 0.272\nsamples = 13\nvalue = [0, 0, 0, 0, 1, 11, 1, 0, 0, 0]"] ;
84 -> 85 ;
86 [label="gini = 0.153\nsamples = 12\nvalue = [0, 0, 0, 0, 0, 11, 1, 0, 0, 0]"] ;
85 -> 86 ;
87 [label="gini = 0.0\nsamples = 1\nvalue = [0, 0, 0, 0, 1, 0, 0, 0, 0, 0]"] ;
85 -> 87 ;
88 [label="Healthy life expectancy at birth <= 0.923\ngini = 0.5\nsamples = 2\nvalue = [0, 0, 0, 0, 1, 0, 1, 0, 0, 0]"] ;
84 -> 88 ;
89 [label="gini = 0.0\nsamples = 1\nvalue = [0, 0, 0, 0, 0, 0, 1, 0, 0, 0]"] ;
88 -> 89 ;
90 [label="gini = 0.0\nsamples = 1\nvalue = [0, 0, 0, 0, 1, 0, 0, 0, 0, 0]"] ;
88 -> 90 ;
91 [label="Healthy life expectancy at birth <= -1.534\ngini = 0.783\nsamples = 95\nvalue = [1, 1, 3, 9, 25, 32, 12, 8, 3, 1]"] ;
49 -> 91 ;
92 [label="Log GDP per capita <= 0.232\ngini = 0.667\nsamples = 12\nvalue = [0, 0, 0, 0, 0, 1, 1, 6, 3, 1]"] ;
91 -> 92 ;
93 [label="Freedom to make life choices <= -1.03\ngini = 0.6\nsamples = 10\nvalue = [0, 0, 0, 0, 0, 1, 1, 6, 1, 1]"] ;
92 -> 93 ;
94 [label="Freedom to make life choices <= -1.553\ngini = 0.5\nsamples = 2\nvalue = [0, 0, 0, 0, 0, 0, 1, 0, 0, 1]"] ;
93 -> 94 ;
95 [label="gini = 0.0\nsamples = 1\nvalue = [0, 0, 0, 0, 0, 0, 1, 0, 0, 0]"] ;
94 -> 95 ;
96 [label="gini = 0.0\nsamples = 1\nvalue = [0, 0, 0, 0, 0, 0, 0, 0, 0, 1]"] ;
94 -> 96 ;
97 [label="Social support <= -0.502\ngini = 0.406\nsamples = 8\nvalue = [0, 0, 0, 0, 0, 1, 0, 6, 1, 0]"] ;
93 -> 97 ;
98 [label="gini = 0.0\nsamples = 1\nvalue = [0, 0, 0, 0, 0, 1, 0, 0, 0, 0]"] ;
97 -> 98 ;
99 [label="Log GDP per capita <= -0.957\ngini = 0.245\nsamples = 7\nvalue = [0, 0, 0, 0, 0, 0, 0, 6, 1, 0]"] ;
97 -> 99 ;
100 [label="gini = 0.0\nsamples = 4\nvalue = [0, 0, 0, 0, 0, 0, 0, 4, 0, 0]"] ;
99 -> 100 ;
101 [label="gini = 0.444\nsamples = 3\nvalue = [0, 0, 0, 0, 0, 0, 0, 2, 1, 0]"] ;
99 -> 101 ;
102 [label="gini = 0.0\nsamples = 2\nvalue = [0, 0, 0, 0, 0, 0, 0, 0, 2, 0]"] ;
92 -> 102 ;
103 [label="Healthy life expectancy at birth <= 0.588\ngini = 0.738\nsamples = 83\nvalue = [1, 1, 3, 9, 25, 31, 11, 2, 0, 0]"] ;
91 -> 103 ;
104 [label="Freedom to make life choices <= 0.094\ngini = 0.732\nsamples = 64\nvalue = [1, 1, 3, 7, 13, 28, 9, 2, 0, 0]"] ;
103 -> 104 ;
105 [label="Healthy life expectancy at birth <= -0.567\ngini = 0.584\nsamples = 35\nvalue = [1, 0, 1, 0, 7, 21, 4, 1, 0, 0]"] ;
104 -> 105 ;
106 [label="Freedom to make life choices <= -0.578\ngini = 0.5\nsamples = 6\nvalue = [0, 0, 0, 0, 0, 3, 3, 0, 0, 0]"] ;
105 -> 106 ;
107 [label="gini = 0.0\nsamples = 3\nvalue = [0, 0, 0, 0, 0, 0, 3, 0, 0, 0]"] ;
106 -> 107 ;
108 [label="gini = 0.0\nsamples = 3\nvalue = [0, 0, 0, 0, 0, 3, 0, 0, 0, 0]"] ;
106 -> 108 ;
109 [label="Freedom to make life choices <= -0.655\ngini = 0.552\nsamples = 29\nvalue = [1, 0, 1, 0, 7, 18, 1, 1, 0, 0]"] ;
105 -> 109 ;
110 [label="gini = 0.292\nsamples = 12\nvalue = [0, 0, 0, 0, 1, 10, 0, 1, 0, 0]"] ;
109 -> 110 ;
111 [label="gini = 0.644\nsamples = 17\nvalue = [1, 0, 1, 0, 6, 8, 1, 0, 0, 0]"] ;
109 -> 111 ;
112 [label="Log GDP per capita <= -0.893\ngini = 0.804\nsamples = 29\nvalue = [0, 1, 2, 7, 6, 7, 5, 1, 0, 0]"] ;
104 -> 112 ;
113 [label="Social support <= -0.525\ngini = 0.531\nsamples = 8\nvalue = [0, 0, 0, 0, 0, 2, 5, 1, 0, 0]"] ;
112 -> 113 ;
114 [label="gini = 0.0\nsamples = 1\nvalue = [0, 0, 0, 0, 0, 0, 0, 1, 0, 0]"] ;
113 -> 114 ;
115 [label="gini = 0.408\nsamples = 7\nvalue = [0, 0, 0, 0, 0, 2, 5, 0, 0, 0]"] ;
113 -> 115 ;
116 [label="Social support <= -0.153\ngini = 0.739\nsamples = 21\nvalue = [0, 1, 2, 7, 6, 5, 0, 0, 0, 0]"] ;
112 -> 116 ;
117 [label="gini = 0.702\nsamples = 15\nvalue = [0, 1, 2, 6, 5, 1, 0, 0, 0, 0]"] ;
116 -> 117 ;
118 [label="gini = 0.5\nsamples = 6\nvalue = [0, 0, 0, 1, 1, 4, 0, 0, 0, 0]"] ;
116 -> 118 ;
119 [label="Social support <= -0.347\ngini = 0.554\nsamples = 19\nvalue = [0, 0, 0, 2, 12, 3, 2, 0, 0, 0]"] ;
103 -> 119 ;
120 [label="Freedom to make life choices <= -0.737\ngini = 0.72\nsamples = 5\nvalue = [0, 0, 0, 2, 1, 1, 1, 0, 0, 0]"] ;
119 -> 120 ;
121 [label="Log GDP per capita <= 0.693\ngini = 0.444\nsamples = 3\nvalue = [0, 0, 0, 2, 0, 1, 0, 0, 0, 0]"] ;
120 -> 121 ;
122 [label="gini = 0.0\nsamples = 2\nvalue = [0, 0, 0, 2, 0, 0, 0, 0, 0, 0]"] ;
121 -> 122 ;
123 [label="gini = 0.0\nsamples = 1\nvalue = [0, 0, 0, 0, 0, 1, 0, 0, 0, 0]"] ;
121 -> 123 ;
124 [label="Log GDP per capita <= 0.04\ngini = 0.5\nsamples = 2\nvalue = [0, 0, 0, 0, 1, 0, 1, 0, 0, 0]"] ;
120 -> 124 ;
125 [label="gini = 0.0\nsamples = 1\nvalue = [0, 0, 0, 0, 0, 0, 1, 0, 0, 0]"] ;
124 -> 125 ;
126 [label="gini = 0.0\nsamples = 1\nvalue = [0, 0, 0, 0, 1, 0, 0, 0, 0, 0]"] ;
124 -> 126 ;
127 [label="Social support <= -0.116\ngini = 0.357\nsamples = 14\nvalue = [0, 0, 0, 0, 11, 2, 1, 0, 0, 0]"] ;
119 -> 127 ;
128 [label="Log GDP per capita <= 0.133\ngini = 0.278\nsamples = 12\nvalue = [0, 0, 0, 0, 10, 2, 0, 0, 0, 0]"] ;
127 -> 128 ;
129 [label="gini = 0.0\nsamples = 6\nvalue = [0, 0, 0, 0, 6, 0, 0, 0, 0, 0]"] ;
128 -> 129 ;
130 [label="gini = 0.444\nsamples = 6\nvalue = [0, 0, 0, 0, 4, 2, 0, 0, 0, 0]"] ;
128 -> 130 ;
131 [label="Social support <= -0.104\ngini = 0.5\nsamples = 2\nvalue = [0, 0, 0, 0, 1, 0, 1, 0, 0, 0]"] ;
127 -> 131 ;
132 [label="gini = 0.0\nsamples = 1\nvalue = [0, 0, 0, 0, 0, 0, 1, 0, 0, 0]"] ;
131 -> 132 ;
133 [label="gini = 0.0\nsamples = 1\nvalue = [0, 0, 0, 0, 1, 0, 0, 0, 0, 0]"] ;
131 -> 133 ;
134 [label="gini = 0.0\nsamples = 5\nvalue = [0, 0, 0, 5, 0, 0, 0, 0, 0, 0]"] ;
48 -> 134 ;
135 [label="Healthy life expectancy at birth <= -0.431\ngini = 0.781\nsamples = 401\nvalue = [4, 18, 72, 140, 87, 45, 18, 15, 2, 0]"] ;
1 -> 135 ;
136 [label="Log GDP per capita <= -1.386\ngini = 0.746\nsamples = 40\nvalue = [0, 0, 0, 2, 4, 15, 6, 11, 2, 0]"] ;
135 -> 136 ;
137 [label="Log GDP per capita <= -1.658\ngini = 0.5\nsamples = 8\nvalue = [0, 0, 0, 0, 0, 0, 4, 4, 0, 0]"] ;
136 -> 137 ;
138 [label="gini = 0.0\nsamples = 3\nvalue = [0, 0, 0, 0, 0, 0, 3, 0, 0, 0]"] ;
137 -> 138 ;
139 [label="Healthy life expectancy at birth <= -1.84\ngini = 0.32\nsamples = 5\nvalue = [0, 0, 0, 0, 0, 0, 1, 4, 0, 0]"] ;
137 -> 139 ;
140 [label="gini = 0.0\nsamples = 1\nvalue = [0, 0, 0, 0, 0, 0, 1, 0, 0, 0]"] ;
139 -> 140 ;
141 [label="gini = 0.0\nsamples = 4\nvalue = [0, 0, 0, 0, 0, 0, 0, 4, 0, 0]"] ;
139 -> 141 ;
142 [label="Log GDP per capita <= 0.226\ngini = 0.705\nsamples = 32\nvalue = [0, 0, 0, 2, 4, 15, 2, 7, 2, 0]"] ;
136 -> 142 ;
143 [label="Social support <= 0.861\ngini = 0.68\nsamples = 29\nvalue = [0, 0, 0, 2, 4, 15, 2, 4, 2, 0]"] ;
142 -> 143 ;
144 [label="Log GDP per capita <= -1.132\ngini = 0.599\nsamples = 22\nvalue = [0, 0, 0, 0, 1, 13, 2, 4, 2, 0]"] ;
143 -> 144 ;
145 [label="Freedom to make life choices <= 0.015\ngini = 0.5\nsamples = 2\nvalue = [0, 0, 0, 0, 1, 0, 0, 0, 1, 0]"] ;
144 -> 145 ;
146 [label="gini = 0.0\nsamples = 1\nvalue = [0, 0, 0, 0, 1, 0, 0, 0, 0, 0]"] ;
145 -> 146 ;
147 [label="gini = 0.0\nsamples = 1\nvalue = [0, 0, 0, 0, 0, 0, 0, 0, 1, 0]"] ;
145 -> 147 ;
148 [label="Freedom to make life choices <= 0.67\ngini = 0.525\nsamples = 20\nvalue = [0, 0, 0, 0, 0, 13, 2, 4, 1, 0]"] ;
144 -> 148 ;
149 [label="Freedom to make life choices <= -1.677\ngini = 0.471\nsamples = 17\nvalue = [0, 0, 0, 0, 0, 12, 2, 2, 1, 0]"] ;
148 -> 149 ;
150 [label="gini = 0.0\nsamples = 1\nvalue = [0, 0, 0, 0, 0, 0, 0, 1, 0, 0]"] ;
149 -> 150 ;
151 [label="Healthy life expectancy at birth <= -1.618\ngini = 0.414\nsamples = 16\nvalue = [0, 0, 0, 0, 0, 12, 2, 1, 1, 0]"] ;
149 -> 151 ;
152 [label="gini = 0.5\nsamples = 2\nvalue = [0, 0, 0, 0, 0, 1, 0, 0, 1, 0]"] ;
151 -> 152 ;
153 [label="gini = 0.357\nsamples = 14\nvalue = [0, 0, 0, 0, 0, 11, 2, 1, 0, 0]"] ;
151 -> 153 ;
154 [label="Social support <= 0.474\ngini = 0.444\nsamples = 3\nvalue = [0, 0, 0, 0, 0, 1, 0, 2, 0, 0]"] ;
148 -> 154 ;
155 [label="gini = 0.0\nsamples = 2\nvalue = [0, 0, 0, 0, 0, 0, 0, 2, 0, 0]"] ;
154 -> 155 ;
156 [label="gini = 0.0\nsamples = 1\nvalue = [0, 0, 0, 0, 0, 1, 0, 0, 0, 0]"] ;
154 -> 156 ;
157 [label="Log GDP per capita <= -0.034\ngini = 0.653\nsamples = 7\nvalue = [0, 0, 0, 2, 3, 2, 0, 0, 0, 0]"] ;
143 -> 157 ;
158 [label="Social support <= 1.015\ngini = 0.5\nsamples = 4\nvalue = [0, 0, 0, 2, 0, 2, 0, 0, 0, 0]"] ;
157 -> 158 ;
159 [label="gini = 0.0\nsamples = 2\nvalue = [0, 0, 0, 2, 0, 0, 0, 0, 0, 0]"] ;
158 -> 159 ;
160 [label="gini = 0.0\nsamples = 2\nvalue = [0, 0, 0, 0, 0, 2, 0, 0, 0, 0]"] ;
158 -> 160 ;
161 [label="gini = 0.0\nsamples = 3\nvalue = [0, 0, 0, 0, 3, 0, 0, 0, 0, 0]"] ;
157 -> 161 ;
162 [label="gini = 0.0\nsamples = 3\nvalue = [0, 0, 0, 0, 0, 0, 0, 3, 0, 0]"] ;
142 -> 162 ;
163 [label="Log GDP per capita <= 0.861\ngini = 0.75\nsamples = 361\nvalue = [4, 18, 72, 138, 83, 30, 12, 4, 0, 0]"] ;
135 -> 163 ;
164 [label="Freedom to make life choices <= -0.701\ngini = 0.751\nsamples = 309\nvalue = [1, 12, 54, 113, 83, 30, 12, 4, 0, 0]"] ;
163 -> 164 ;
165 [label="Social support <= 0.96\ngini = 0.744\nsamples = 59\nvalue = [0, 0, 3, 12, 24, 11, 5, 4, 0, 0]"] ;
164 -> 165 ;
166 [label="Healthy life expectancy at birth <= 0.472\ngini = 0.732\nsamples = 55\nvalue = [0, 0, 3, 8, 24, 11, 5, 4, 0, 0]"] ;
165 -> 166 ;
167 [label="Freedom to make life choices <= -1.659\ngini = 0.795\nsamples = 35\nvalue = [0, 0, 3, 4, 11, 8, 5, 4, 0, 0]"] ;
166 -> 167 ;
168 [label="Social support <= 0.501\ngini = 0.594\nsamples = 8\nvalue = [0, 0, 0, 0, 4, 0, 1, 3, 0, 0]"] ;
167 -> 168 ;
169 [label="Log GDP per capita <= 0.057\ngini = 0.375\nsamples = 4\nvalue = [0, 0, 0, 0, 3, 0, 1, 0, 0, 0]"] ;
168 -> 169 ;
170 [label="gini = 0.0\nsamples = 3\nvalue = [0, 0, 0, 0, 3, 0, 0, 0, 0, 0]"] ;
169 -> 170 ;
171 [label="gini = 0.0\nsamples = 1\nvalue = [0, 0, 0, 0, 0, 0, 1, 0, 0, 0]"] ;
169 -> 171 ;
172 [label="Social support <= 0.894\ngini = 0.375\nsamples = 4\nvalue = [0, 0, 0, 0, 1, 0, 0, 3, 0, 0]"] ;
168 -> 172 ;
173 [label="gini = 0.0\nsamples = 3\nvalue = [0, 0, 0, 0, 0, 0, 0, 3, 0, 0]"] ;
172 -> 173 ;
174 [label="gini = 0.0\nsamples = 1\nvalue = [0, 0, 0, 0, 1, 0, 0, 0, 0, 0]"] ;
172 -> 174 ;
175 [label="Freedom to make life choices <= -1.535\ngini = 0.787\nsamples = 27\nvalue = [0, 0, 3, 4, 7, 8, 4, 1, 0, 0]"] ;
167 -> 175 ;
176 [label="gini = 0.0\nsamples = 2\nvalue = [0, 0, 2, 0, 0, 0, 0, 0, 0, 0]"] ;
175 -> 176 ;
177 [label="Log GDP per capita <= 0.258\ngini = 0.765\nsamples = 25\nvalue = [0, 0, 1, 4, 7, 8, 4, 1, 0, 0]"] ;
175 -> 177 ;
178 [label="gini = 0.722\nsamples = 12\nvalue = [0, 0, 1, 2, 1, 5, 3, 0, 0, 0]"] ;
177 -> 178 ;
179 [label="gini = 0.698\nsamples = 13\nvalue = [0, 0, 0, 2, 6, 3, 1, 1, 0, 0]"] ;
177 -> 179 ;
180 [label="Freedom to make life choices <= -2.149\ngini = 0.515\nsamples = 20\nvalue = [0, 0, 0, 4, 13, 3, 0, 0, 0, 0]"] ;
166 -> 180 ;
181 [label="gini = 0.0\nsamples = 3\nvalue = [0, 0, 0, 0, 0, 3, 0, 0, 0, 0]"] ;
180 -> 181 ;
182 [label="Healthy life expectancy at birth <= 0.834\ngini = 0.36\nsamples = 17\nvalue = [0, 0, 0, 4, 13, 0, 0, 0, 0, 0]"] ;
180 -> 182 ;
183 [label="Log GDP per capita <= 0.269\ngini = 0.153\nsamples = 12\nvalue = [0, 0, 0, 1, 11, 0, 0, 0, 0, 0]"] ;
182 -> 183 ;
184 [label="gini = 0.5\nsamples = 2\nvalue = [0, 0, 0, 1, 1, 0, 0, 0, 0, 0]"] ;
183 -> 184 ;
185 [label="gini = 0.0\nsamples = 10\nvalue = [0, 0, 0, 0, 10, 0, 0, 0, 0, 0]"] ;
183 -> 185 ;
186 [label="Log GDP per capita <= 0.733\ngini = 0.48\nsamples = 5\nvalue = [0, 0, 0, 3, 2, 0, 0, 0, 0, 0]"] ;
182 -> 186 ;
187 [label="gini = 0.0\nsamples = 3\nvalue = [0, 0, 0, 3, 0, 0, 0, 0, 0, 0]"] ;
186 -> 187 ;
188 [label="gini = 0.0\nsamples = 2\nvalue = [0, 0, 0, 0, 2, 0, 0, 0, 0, 0]"] ;
186 -> 188 ;
189 [label="gini = 0.0\nsamples = 4\nvalue = [0, 0, 0, 4, 0, 0, 0, 0, 0, 0]"] ;
165 -> 189 ;
190 [label="Healthy life expectancy at birth <= 0.89\ngini = 0.731\nsamples = 250\nvalue = [1, 12, 51, 101, 59, 19, 7, 0, 0, 0]"] ;
164 -> 190 ;
191 [label="Log GDP per capita <= 0.259\ngini = 0.713\nsamples = 235\nvalue = [0, 7, 47, 101, 55, 18, 7, 0, 0, 0]"] ;
190 -> 191 ;
192 [label="Social support <= -0.044\ngini = 0.711\nsamples = 145\nvalue = [0, 0, 20, 60, 42, 16, 7, 0, 0, 0]"] ;
191 -> 192 ;
193 [label="Log GDP per capita <= -0.383\ngini = 0.219\nsamples = 8\nvalue = [0, 0, 1, 7, 0, 0, 0, 0, 0, 0]"] ;
192 -> 193 ;
194 [label="gini = 0.0\nsamples = 1\nvalue = [0, 0, 1, 0, 0, 0, 0, 0, 0, 0]"] ;
193 -> 194 ;
195 [label="gini = 0.0\nsamples = 7\nvalue = [0, 0, 0, 7, 0, 0, 0, 0, 0, 0]"] ;
193 -> 195 ;
196 [label="Social support <= 0.211\ngini = 0.721\nsamples = 137\nvalue = [0, 0, 19, 53, 42, 16, 7, 0, 0, 0]"] ;
192 -> 196 ;
197 [label="Healthy life expectancy at birth <= 0.131\ngini = 0.734\nsamples = 43\nvalue = [0, 0, 5, 9, 18, 6, 5, 0, 0, 0]"] ;
196 -> 197 ;
198 [label="gini = 0.715\nsamples = 19\nvalue = [0, 0, 5, 7, 5, 2, 0, 0, 0, 0]"] ;
197 -> 198 ;
199 [label="gini = 0.628\nsamples = 24\nvalue = [0, 0, 0, 2, 13, 4, 5, 0, 0, 0]"] ;
197 -> 199 ;
200 [label="Freedom to make life choices <= 0.537\ngini = 0.682\nsamples = 94\nvalue = [0, 0, 14, 44, 24, 10, 2, 0, 0, 0]"] ;
196 -> 200 ;
201 [label="gini = 0.681\nsamples = 49\nvalue = [0, 0, 8, 18, 19, 4, 0, 0, 0, 0]"] ;
200 -> 201 ;
202 [label="gini = 0.616\nsamples = 45\nvalue = [0, 0, 6, 26, 5, 6, 2, 0, 0, 0]"] ;
200 -> 202 ;
203 [label="Freedom to make life choices <= 0.607\ngini = 0.675\nsamples = 90\nvalue = [0, 7, 27, 41, 13, 2, 0, 0, 0, 0]"] ;
191 -> 203 ;
204 [label="Log GDP per capita <= 0.819\ngini = 0.648\nsamples = 59\nvalue = [0, 4, 10, 31, 12, 2, 0, 0, 0, 0]"] ;
203 -> 204 ;
205 [label="Social support <= 0.797\ngini = 0.628\nsamples = 54\nvalue = [0, 4, 10, 30, 8, 2, 0, 0, 0, 0]"] ;
204 -> 205 ;
206 [label="gini = 0.473\nsamples = 30\nvalue = [0, 1, 4, 21, 4, 0, 0, 0, 0, 0]"] ;
205 -> 206 ;
207 [label="gini = 0.747\nsamples = 24\nvalue = [0, 3, 6, 9, 4, 2, 0, 0, 0, 0]"] ;
205 -> 207 ;
208 [label="Social support <= 1.03\ngini = 0.32\nsamples = 5\nvalue = [0, 0, 0, 1, 4, 0, 0, 0, 0, 0]"] ;
204 -> 208 ;
209 [label="gini = 0.0\nsamples = 4\nvalue = [0, 0, 0, 0, 4, 0, 0, 0, 0, 0]"] ;
208 -> 209 ;
210 [label="gini = 0.0\nsamples = 1\nvalue = [0, 0, 0, 1, 0, 0, 0, 0, 0, 0]"] ;
208 -> 210 ;
211 [label="Freedom to make life choices <= 0.913\ngini = 0.585\nsamples = 31\nvalue = [0, 3, 17, 10, 1, 0, 0, 0, 0, 0]"] ;
203 -> 211 ;
212 [label="Log GDP per capita <= 0.751\ngini = 0.36\nsamples = 17\nvalue = [0, 0, 13, 4, 0, 0, 0, 0, 0, 0]"] ;
211 -> 212 ;
213 [label="gini = 0.165\nsamples = 11\nvalue = [0, 0, 10, 1, 0, 0, 0, 0, 0, 0]"] ;
212 -> 213 ;
214 [label="gini = 0.5\nsamples = 6\nvalue = [0, 0, 3, 3, 0, 0, 0, 0, 0, 0]"] ;
212 -> 214 ;
215 [label="Freedom to make life choices <= 0.932\ngini = 0.684\nsamples = 14\nvalue = [0, 3, 4, 6, 1, 0, 0, 0, 0, 0]"] ;
211 -> 215 ;
216 [label="gini = 0.0\nsamples = 3\nvalue = [0, 0, 0, 3, 0, 0, 0, 0, 0, 0]"] ;
215 -> 216 ;
217 [label="gini = 0.711\nsamples = 11\nvalue = [0, 3, 4, 3, 1, 0, 0, 0, 0, 0]"] ;
215 -> 217 ;
218 [label="Log GDP per capita <= 0.718\ngini = 0.738\nsamples = 15\nvalue = [1, 5, 4, 0, 4, 1, 0, 0, 0, 0]"] ;
190 -> 218 ;
219 [label="Freedom to make life choices <= 0.477\ngini = 0.568\nsamples = 9\nvalue = [1, 5, 3, 0, 0, 0, 0, 0, 0, 0]"] ;
218 -> 219 ;
220 [label="Healthy life expectancy at birth <= 0.909\ngini = 0.375\nsamples = 4\nvalue = [0, 1, 3, 0, 0, 0, 0, 0, 0, 0]"] ;
219 -> 220 ;
221 [label="gini = 0.0\nsamples = 1\nvalue = [0, 1, 0, 0, 0, 0, 0, 0, 0, 0]"] ;
220 -> 221 ;
222 [label="gini = 0.0\nsamples = 3\nvalue = [0, 0, 3, 0, 0, 0, 0, 0, 0, 0]"] ;
220 -> 222 ;
223 [label="Log GDP per capita <= 0.402\ngini = 0.32\nsamples = 5\nvalue = [1, 4, 0, 0, 0, 0, 0, 0, 0, 0]"] ;
219 -> 223 ;
224 [label="gini = 0.0\nsamples = 1\nvalue = [1, 0, 0, 0, 0, 0, 0, 0, 0, 0]"] ;
223 -> 224 ;
225 [label="gini = 0.0\nsamples = 4\nvalue = [0, 4, 0, 0, 0, 0, 0, 0, 0, 0]"] ;
223 -> 225 ;
226 [label="Healthy life expectancy at birth <= 1.089\ngini = 0.5\nsamples = 6\nvalue = [0, 0, 1, 0, 4, 1, 0, 0, 0, 0]"] ;
218 -> 226 ;
227 [label="Healthy life expectancy at birth <= 1.063\ngini = 0.32\nsamples = 5\nvalue = [0, 0, 1, 0, 4, 0, 0, 0, 0, 0]"] ;
226 -> 227 ;
228 [label="Healthy life expectancy at birth <= 1.053\ngini = 0.5\nsamples = 2\nvalue = [0, 0, 1, 0, 1, 0, 0, 0, 0, 0]"] ;
227 -> 228 ;
229 [label="gini = 0.0\nsamples = 1\nvalue = [0, 0, 0, 0, 1, 0, 0, 0, 0, 0]"] ;
228 -> 229 ;
230 [label="gini = 0.0\nsamples = 1\nvalue = [0, 0, 1, 0, 0, 0, 0, 0, 0, 0]"] ;
228 -> 230 ;
231 [label="gini = 0.0\nsamples = 3\nvalue = [0, 0, 0, 0, 3, 0, 0, 0, 0, 0]"] ;
227 -> 231 ;
232 [label="gini = 0.0\nsamples = 1\nvalue = [0, 0, 0, 0, 0, 1, 0, 0, 0, 0]"] ;
226 -> 232 ;
233 [label="Social support <= 1.084\ngini = 0.632\nsamples = 52\nvalue = [3, 6, 18, 25, 0, 0, 0, 0, 0, 0]"] ;
163 -> 233 ;
234 [label="Freedom to make life choices <= 0.066\ngini = 0.563\nsamples = 39\nvalue = [3, 4, 8, 24, 0, 0, 0, 0, 0, 0]"] ;
233 -> 234 ;
235 [label="Log GDP per capita <= 1.032\ngini = 0.676\nsamples = 21\nvalue = [2, 3, 7, 9, 0, 0, 0, 0, 0, 0]"] ;
234 -> 235 ;
236 [label="Freedom to make life choices <= -0.237\ngini = 0.695\nsamples = 16\nvalue = [2, 3, 7, 4, 0, 0, 0, 0, 0, 0]"] ;
235 -> 236 ;
237 [label="Healthy life expectancy at birth <= 1.35\ngini = 0.531\nsamples = 8\nvalue = [0, 2, 5, 1, 0, 0, 0, 0, 0, 0]"] ;
236 -> 237 ;
238 [label="Healthy life expectancy at birth <= 0.799\ngini = 0.449\nsamples = 7\nvalue = [0, 1, 5, 1, 0, 0, 0, 0, 0, 0]"] ;
237 -> 238 ;
239 [label="gini = 0.667\nsamples = 3\nvalue = [0, 1, 1, 1, 0, 0, 0, 0, 0, 0]"] ;
238 -> 239 ;
240 [label="gini = 0.0\nsamples = 4\nvalue = [0, 0, 4, 0, 0, 0, 0, 0, 0, 0]"] ;
238 -> 240 ;
241 [label="gini = 0.0\nsamples = 1\nvalue = [0, 1, 0, 0, 0, 0, 0, 0, 0, 0]"] ;
237 -> 241 ;
242 [label="Social support <= 0.951\ngini = 0.719\nsamples = 8\nvalue = [2, 1, 2, 3, 0, 0, 0, 0, 0, 0]"] ;
236 -> 242 ;
243 [label="Social support <= 0.561\ngini = 0.611\nsamples = 6\nvalue = [2, 1, 0, 3, 0, 0, 0, 0, 0, 0]"] ;
242 -> 243 ;
244 [label="gini = 0.0\nsamples = 1\nvalue = [0, 1, 0, 0, 0, 0, 0, 0, 0, 0]"] ;
243 -> 244 ;
245 [label="gini = 0.48\nsamples = 5\nvalue = [2, 0, 0, 3, 0, 0, 0, 0, 0, 0]"] ;
243 -> 245 ;
246 [label="gini = 0.0\nsamples = 2\nvalue = [0, 0, 2, 0, 0, 0, 0, 0, 0, 0]"] ;
242 -> 246 ;
247 [label="gini = 0.0\nsamples = 5\nvalue = [0, 0, 0, 5, 0, 0, 0, 0, 0, 0]"] ;
235 -> 247 ;
248 [label="Freedom to make life choices <= 1.156\ngini = 0.296\nsamples = 18\nvalue = [1, 1, 1, 15, 0, 0, 0, 0, 0, 0]"] ;
234 -> 248 ;
249 [label="Social support <= 0.893\ngini = 0.215\nsamples = 17\nvalue = [1, 1, 0, 15, 0, 0, 0, 0, 0, 0]"] ;
248 -> 249 ;
250 [label="gini = 0.0\nsamples = 10\nvalue = [0, 0, 0, 10, 0, 0, 0, 0, 0, 0]"] ;
249 -> 250 ;
251 [label="Log GDP per capita <= 1.004\ngini = 0.449\nsamples = 7\nvalue = [1, 1, 0, 5, 0, 0, 0, 0, 0, 0]"] ;
249 -> 251 ;
252 [label="gini = 0.0\nsamples = 5\nvalue = [0, 0, 0, 5, 0, 0, 0, 0, 0, 0]"] ;
251 -> 252 ;
253 [label="Freedom to make life choices <= 0.63\ngini = 0.5\nsamples = 2\nvalue = [1, 1, 0, 0, 0, 0, 0, 0, 0, 0]"] ;
251 -> 253 ;
254 [label="gini = 0.0\nsamples = 1\nvalue = [1, 0, 0, 0, 0, 0, 0, 0, 0, 0]"] ;
253 -> 254 ;
255 [label="gini = 0.0\nsamples = 1\nvalue = [0, 1, 0, 0, 0, 0, 0, 0, 0, 0]"] ;
253 -> 255 ;
256 [label="gini = 0.0\nsamples = 1\nvalue = [0, 0, 1, 0, 0, 0, 0, 0, 0, 0]"] ;
248 -> 256 ;
257 [label="Healthy life expectancy at birth <= 1.311\ngini = 0.379\nsamples = 13\nvalue = [0, 2, 10, 1, 0, 0, 0, 0, 0, 0]"] ;
233 -> 257 ;
258 [label="Healthy life expectancy at birth <= 1.132\ngini = 0.292\nsamples = 12\nvalue = [0, 1, 10, 1, 0, 0, 0, 0, 0, 0]"] ;
257 -> 258 ;
259 [label="Log GDP per capita <= 0.96\ngini = 0.449\nsamples = 7\nvalue = [0, 1, 5, 1, 0, 0, 0, 0, 0, 0]"] ;
258 -> 259 ;
260 [label="gini = 0.0\nsamples = 5\nvalue = [0, 0, 5, 0, 0, 0, 0, 0, 0, 0]"] ;
259 -> 260 ;
261 [label="Freedom to make life choices <= 0.936\ngini = 0.5\nsamples = 2\nvalue = [0, 1, 0, 1, 0, 0, 0, 0, 0, 0]"] ;
259 -> 261 ;
262 [label="gini = 0.0\nsamples = 1\nvalue = [0, 1, 0, 0, 0, 0, 0, 0, 0, 0]"] ;
261 -> 262 ;
263 [label="gini = 0.0\nsamples = 1\nvalue = [0, 0, 0, 1, 0, 0, 0, 0, 0, 0]"] ;
261 -> 263 ;
264 [label="gini = 0.0\nsamples = 5\nvalue = [0, 0, 5, 0, 0, 0, 0, 0, 0, 0]"] ;
258 -> 264 ;
265 [label="gini = 0.0\nsamples = 1\nvalue = [0, 1, 0, 0, 0, 0, 0, 0, 0, 0]"] ;
257 -> 265 ;
266 [label="Freedom to make life choices <= 1.093\ngini = 0.681\nsamples = 171\nvalue = [67, 61, 31, 12, 0, 0, 0, 0, 0, 0]"] ;
0 -> 266 [labeldistance=2.5, labelangle=45, headlabel="False"] ;
267 [label="Healthy life expectancy at birth <= 1.25\ngini = 0.649\nsamples = 99\nvalue = [11, 50, 26, 12, 0, 0, 0, 0, 0, 0]"] ;
266 -> 267 ;
268 [label="Healthy life expectancy at birth <= 0.037\ngini = 0.547\nsamples = 79\nvalue = [8, 50, 15, 6, 0, 0, 0, 0, 0, 0]"] ;
267 -> 268 ;
269 [label="gini = 0.0\nsamples = 8\nvalue = [0, 0, 8, 0, 0, 0, 0, 0, 0, 0]"] ;
268 -> 269 ;
270 [label="Social support <= 0.635\ngini = 0.475\nsamples = 71\nvalue = [8, 50, 7, 6, 0, 0, 0, 0, 0, 0]"] ;
268 -> 270 ;
271 [label="Healthy life expectancy at birth <= 1.006\ngini = 0.66\nsamples = 18\nvalue = [0, 7, 5, 6, 0, 0, 0, 0, 0, 0]"] ;
270 -> 271 ;
272 [label="Healthy life expectancy at birth <= 0.327\ngini = 0.54\nsamples = 10\nvalue = [0, 3, 1, 6, 0, 0, 0, 0, 0, 0]"] ;
271 -> 272 ;
273 [label="gini = 0.0\nsamples = 2\nvalue = [0, 2, 0, 0, 0, 0, 0, 0, 0, 0]"] ;
272 -> 273 ;
274 [label="Log GDP per capita <= 1.133\ngini = 0.406\nsamples = 8\nvalue = [0, 1, 1, 6, 0, 0, 0, 0, 0, 0]"] ;
272 -> 274 ;
275 [label="gini = 0.0\nsamples = 1\nvalue = [0, 1, 0, 0, 0, 0, 0, 0, 0, 0]"] ;
274 -> 275 ;
276 [label="Freedom to make life choices <= 0.971\ngini = 0.245\nsamples = 7\nvalue = [0, 0, 1, 6, 0, 0, 0, 0, 0, 0]"] ;
274 -> 276 ;
277 [label="gini = 0.0\nsamples = 6\nvalue = [0, 0, 0, 6, 0, 0, 0, 0, 0, 0]"] ;
276 -> 277 ;
278 [label="gini = 0.0\nsamples = 1\nvalue = [0, 0, 1, 0, 0, 0, 0, 0, 0, 0]"] ;
276 -> 278 ;
279 [label="Freedom to make life choices <= 0.109\ngini = 0.5\nsamples = 8\nvalue = [0, 4, 4, 0, 0, 0, 0, 0, 0, 0]"] ;
271 -> 279 ;
280 [label="gini = 0.0\nsamples = 3\nvalue = [0, 3, 0, 0, 0, 0, 0, 0, 0, 0]"] ;
279 -> 280 ;
281 [label="Freedom to make life choices <= 0.689\ngini = 0.32\nsamples = 5\nvalue = [0, 1, 4, 0, 0, 0, 0, 0, 0, 0]"] ;
279 -> 281 ;
282 [label="gini = 0.0\nsamples = 4\nvalue = [0, 0, 4, 0, 0, 0, 0, 0, 0, 0]"] ;
281 -> 282 ;
283 [label="gini = 0.0\nsamples = 1\nvalue = [0, 1, 0, 0, 0, 0, 0, 0, 0, 0]"] ;
281 -> 283 ;
284 [label="Healthy life expectancy at birth <= 1.113\ngini = 0.318\nsamples = 53\nvalue = [8, 43, 2, 0, 0, 0, 0, 0, 0, 0]"] ;
270 -> 284 ;
285 [label="Log GDP per capita <= 1.088\ngini = 0.148\nsamples = 38\nvalue = [2, 35, 1, 0, 0, 0, 0, 0, 0, 0]"] ;
284 -> 285 ;
286 [label="Healthy life expectancy at birth <= 0.895\ngini = 0.5\nsamples = 2\nvalue = [0, 1, 1, 0, 0, 0, 0, 0, 0, 0]"] ;
285 -> 286 ;
287 [label="gini = 0.0\nsamples = 1\nvalue = [0, 0, 1, 0, 0, 0, 0, 0, 0, 0]"] ;
286 -> 287 ;
288 [label="gini = 0.0\nsamples = 1\nvalue = [0, 1, 0, 0, 0, 0, 0, 0, 0, 0]"] ;
286 -> 288 ;
289 [label="Social support <= 0.835\ngini = 0.105\nsamples = 36\nvalue = [2, 34, 0, 0, 0, 0, 0, 0, 0, 0]"] ;
285 -> 289 ;
290 [label="Social support <= 0.815\ngini = 0.346\nsamples = 9\nvalue = [2, 7, 0, 0, 0, 0, 0, 0, 0, 0]"] ;
289 -> 290 ;
291 [label="gini = 0.0\nsamples = 7\nvalue = [0, 7, 0, 0, 0, 0, 0, 0, 0, 0]"] ;
290 -> 291 ;
292 [label="gini = 0.0\nsamples = 2\nvalue = [2, 0, 0, 0, 0, 0, 0, 0, 0, 0]"] ;
290 -> 292 ;
293 [label="gini = 0.0\nsamples = 27\nvalue = [0, 27, 0, 0, 0, 0, 0, 0, 0, 0]"] ;
289 -> 293 ;
294 [label="Log GDP per capita <= 1.237\ngini = 0.551\nsamples = 15\nvalue = [6, 8, 1, 0, 0, 0, 0, 0, 0, 0]"] ;
284 -> 294 ;
295 [label="Healthy life expectancy at birth <= 1.183\ngini = 0.32\nsamples = 5\nvalue = [0, 4, 1, 0, 0, 0, 0, 0, 0, 0]"] ;
294 -> 295 ;
296 [label="gini = 0.0\nsamples = 4\nvalue = [0, 4, 0, 0, 0, 0, 0, 0, 0, 0]"] ;
295 -> 296 ;
297 [label="gini = 0.0\nsamples = 1\nvalue = [0, 0, 1, 0, 0, 0, 0, 0, 0, 0]"] ;
295 -> 297 ;
298 [label="Log GDP per capita <= 1.419\ngini = 0.48\nsamples = 10\nvalue = [6, 4, 0, 0, 0, 0, 0, 0, 0, 0]"] ;
294 -> 298 ;
299 [label="gini = 0.0\nsamples = 4\nvalue = [4, 0, 0, 0, 0, 0, 0, 0, 0, 0]"] ;
298 -> 299 ;
300 [label="Freedom to make life choices <= 0.812\ngini = 0.444\nsamples = 6\nvalue = [2, 4, 0, 0, 0, 0, 0, 0, 0, 0]"] ;
298 -> 300 ;
301 [label="Social support <= 1.078\ngini = 0.444\nsamples = 3\nvalue = [2, 1, 0, 0, 0, 0, 0, 0, 0, 0]"] ;
300 -> 301 ;
302 [label="gini = 0.0\nsamples = 2\nvalue = [2, 0, 0, 0, 0, 0, 0, 0, 0, 0]"] ;
301 -> 302 ;
303 [label="gini = 0.0\nsamples = 1\nvalue = [0, 1, 0, 0, 0, 0, 0, 0, 0, 0]"] ;
301 -> 303 ;
304 [label="gini = 0.0\nsamples = 3\nvalue = [0, 3, 0, 0, 0, 0, 0, 0, 0, 0]"] ;
300 -> 304 ;
305 [label="Freedom to make life choices <= 0.978\ngini = 0.585\nsamples = 20\nvalue = [3, 0, 11, 6, 0, 0, 0, 0, 0, 0]"] ;
267 -> 305 ;
306 [label="Freedom to make life choices <= -0.699\ngini = 0.43\nsamples = 16\nvalue = [0, 0, 11, 5, 0, 0, 0, 0, 0, 0]"] ;
305 -> 306 ;
307 [label="gini = 0.0\nsamples = 3\nvalue = [0, 0, 0, 3, 0, 0, 0, 0, 0, 0]"] ;
306 -> 307 ;
308 [label="Healthy life expectancy at birth <= 1.538\ngini = 0.26\nsamples = 13\nvalue = [0, 0, 11, 2, 0, 0, 0, 0, 0, 0]"] ;
306 -> 308 ;
309 [label="gini = 0.0\nsamples = 11\nvalue = [0, 0, 11, 0, 0, 0, 0, 0, 0, 0]"] ;
308 -> 309 ;
310 [label="gini = 0.0\nsamples = 2\nvalue = [0, 0, 0, 2, 0, 0, 0, 0, 0, 0]"] ;
308 -> 310 ;
311 [label="Freedom to make life choices <= 1.068\ngini = 0.375\nsamples = 4\nvalue = [3, 0, 0, 1, 0, 0, 0, 0, 0, 0]"] ;
305 -> 311 ;
312 [label="gini = 0.0\nsamples = 3\nvalue = [3, 0, 0, 0, 0, 0, 0, 0, 0, 0]"] ;
311 -> 312 ;
313 [label="gini = 0.0\nsamples = 1\nvalue = [0, 0, 0, 1, 0, 0, 0, 0, 0, 0]"] ;
311 -> 313 ;
314 [label="Social support <= 0.584\ngini = 0.367\nsamples = 72\nvalue = [56, 11, 5, 0, 0, 0, 0, 0, 0, 0]"] ;
266 -> 314 ;
315 [label="Healthy life expectancy at birth <= 0.312\ngini = 0.5\nsamples = 6\nvalue = [0, 3, 3, 0, 0, 0, 0, 0, 0, 0]"] ;
314 -> 315 ;
316 [label="gini = 0.0\nsamples = 3\nvalue = [0, 0, 3, 0, 0, 0, 0, 0, 0, 0]"] ;
315 -> 316 ;
317 [label="gini = 0.0\nsamples = 3\nvalue = [0, 3, 0, 0, 0, 0, 0, 0, 0, 0]"] ;
315 -> 317 ;
318 [label="Healthy life expectancy at birth <= 1.431\ngini = 0.264\nsamples = 66\nvalue = [56, 8, 2, 0, 0, 0, 0, 0, 0, 0]"] ;
314 -> 318 ;
319 [label="Log GDP per capita <= 1.903\ngini = 0.219\nsamples = 64\nvalue = [56, 8, 0, 0, 0, 0, 0, 0, 0, 0]"] ;
318 -> 319 ;
320 [label="Freedom to make life choices <= 1.242\ngini = 0.198\nsamples = 63\nvalue = [56, 7, 0, 0, 0, 0, 0, 0, 0, 0]"] ;
319 -> 320 ;
321 [label="Healthy life expectancy at birth <= 1.143\ngini = 0.375\nsamples = 20\nvalue = [15, 5, 0, 0, 0, 0, 0, 0, 0, 0]"] ;
320 -> 321 ;
322 [label="Log GDP per capita <= 1.192\ngini = 0.494\nsamples = 9\nvalue = [5, 4, 0, 0, 0, 0, 0, 0, 0, 0]"] ;
321 -> 322 ;
323 [label="gini = 0.0\nsamples = 3\nvalue = [3, 0, 0, 0, 0, 0, 0, 0, 0, 0]"] ;
322 -> 323 ;
324 [label="Healthy life expectancy at birth <= 1.009\ngini = 0.444\nsamples = 6\nvalue = [2, 4, 0, 0, 0, 0, 0, 0, 0, 0]"] ;
322 -> 324 ;
325 [label="gini = 0.0\nsamples = 1\nvalue = [1, 0, 0, 0, 0, 0, 0, 0, 0, 0]"] ;
324 -> 325 ;
326 [label="Freedom to make life choices <= 1.21\ngini = 0.32\nsamples = 5\nvalue = [1, 4, 0, 0, 0, 0, 0, 0, 0, 0]"] ;
324 -> 326 ;
327 [label="gini = 0.0\nsamples = 3\nvalue = [0, 3, 0, 0, 0, 0, 0, 0, 0, 0]"] ;
326 -> 327 ;
328 [label="gini = 0.5\nsamples = 2\nvalue = [1, 1, 0, 0, 0, 0, 0, 0, 0, 0]"] ;
326 -> 328 ;
329 [label="Log GDP per capita <= 1.165\ngini = 0.165\nsamples = 11\nvalue = [10, 1, 0, 0, 0, 0, 0, 0, 0, 0]"] ;
321 -> 329 ;
330 [label="gini = 0.0\nsamples = 1\nvalue = [0, 1, 0, 0, 0, 0, 0, 0, 0, 0]"] ;
329 -> 330 ;
331 [label="gini = 0.0\nsamples = 10\nvalue = [10, 0, 0, 0, 0, 0, 0, 0, 0, 0]"] ;
329 -> 331 ;
332 [label="Log GDP per capita <= 1.492\ngini = 0.089\nsamples = 43\nvalue = [41, 2, 0, 0, 0, 0, 0, 0, 0, 0]"] ;
320 -> 332 ;
333 [label="Social support <= 0.973\ngini = 0.046\nsamples = 42\nvalue = [41, 1, 0, 0, 0, 0, 0, 0, 0, 0]"] ;
332 -> 333 ;
334 [label="Log GDP per capita <= 1.342\ngini = 0.5\nsamples = 2\nvalue = [1, 1, 0, 0, 0, 0, 0, 0, 0, 0]"] ;
333 -> 334 ;
335 [label="gini = 0.0\nsamples = 1\nvalue = [0, 1, 0, 0, 0, 0, 0, 0, 0, 0]"] ;
334 -> 335 ;
336 [label="gini = 0.0\nsamples = 1\nvalue = [1, 0, 0, 0, 0, 0, 0, 0, 0, 0]"] ;
334 -> 336 ;
337 [label="gini = 0.0\nsamples = 40\nvalue = [40, 0, 0, 0, 0, 0, 0, 0, 0, 0]"] ;
333 -> 337 ;
338 [label="gini = 0.0\nsamples = 1\nvalue = [0, 1, 0, 0, 0, 0, 0, 0, 0, 0]"] ;
332 -> 338 ;
339 [label="gini = 0.0\nsamples = 1\nvalue = [0, 1, 0, 0, 0, 0, 0, 0, 0, 0]"] ;
319 -> 339 ;
340 [label="gini = 0.0\nsamples = 2\nvalue = [0, 0, 2, 0, 0, 0, 0, 0, 0, 0]"] ;
318 -> 340 ;
}
